{"learner":{"attributes":{"scikit_learn":"{\"_estimator_type\": \"regressor\"}"},"feature_names":[],"feature_types":[],"gradient_booster":{"model":{"gbtree_model_param":{"num_parallel_tree":"1","num_trees":"100"},"iteration_indptr":[0,1,2,3,4,5,6,7,8,9,10,11,12,13,14,15,16,17,18,19,20,21,22,23,24,25,26,27,28,29,30,31,32,33,34,35,36,37,38,39,40,41,42,43,44,45,46,47,48,49,50,51,52,53,54,55,56,57,58,59,60,61,62,63,64,65,66,67,68,69,70,71,72,73,74,75,76,77,78,79,80,81,82,83,84,85,86,87,88,89,90,91,92,93,94,95,96,97,98,99,100],"tree_info":[0,0,0,0,0,0,0,0,0,0,0,0,0,0,0,0,0,0,0,0,0,0,0,0,0,0,0,0,0,0,0,0,0,0,0,0,0,0,0,0,0,0,0,0,0,0,0,0,0,0,0,0,0,0,0,0,0,0,0,0,0,0,0,0,0,0,0,0,0,0,0,0,0,0,0,0,0,0,0,0,0,0,0,0,0,0,0,0,0,0,0,0,0,0,0,0,0,0,0,0],"trees":[{"base_weights":[-4.1335102E-10,-1.4596057E-2,2.6441481E-2,-2.2668984E-2,3.306166E-2,4.2085577E-4,5.3210463E-2,-1.664608E-2,-6.715374E-2,7.484267E-2,2.2060778E-2,1.03692105E-2,-6.413512E-2,3.4401793E-2,8.020261E-2,-1.5276938E-2,-1.8880276E-1,-8.290461E-2,-2.3699956E-2,1.0693144E-1,5.6615897E-2,1.1288765E-2,4.4587918E-2,7.6180217E-3,6.673985E-2,-9.1373235E-2,-1.4405876E-2,4.5779396E-2,2.004546E-2,8.958631E-2,4.0609855E-2,-1.8764839E-2,3.4802776E-2,-2.0172529E-1,-7.0786126E-2,-9.327969E-2,-3.7377015E-2,-4.059705E-2,-8.868913E-3,1.163898E-1,7.348359E-2,4.0250942E-2,7.781654E-2,1.7506232E-4,4.701679E-2,2.8828874E-2,6.297006E-2,3.3022117E-2,4.5418637E-3,1.2633914E-1,5.9779856E-2,-1.0253661E-1,-1.5586074E-2,-2.6685994E-2,4.401133E-2,3.757881E-2,6.876611E-2,1.4229475E-2,4.449158E-2,9.2267826E-2,2.4988879E-2,7.4725926E-2,2.9570697E-2,-6.848821E-3,8.966029E-3,5.0370097E-3,1.5285802E-2,-6.363062E-2,-2.6047686E-2,-2.871736E-2,2.3552569E-2,-2.9289057E-2,7.7646733E-3,-1.3159832E-2,2.7790833E-3,-1.247716E-2,9.117462E-2,1.4406237E-2,-3.969113E-3,4.746554E-2,3.1563465E-2,1.49294445E-2,3.0247118E-2,7.895971E-3,2.0780213E-2,1.9218192E-2,3.3276178E-2,-1.950717E-3,1.2974564E-2,1.9844076E-2,9.924597E-3,1.4611874E-3,1.3059164E-2,1.6899815E-2,3.2247633E-2,7.0172665E-3,2.4005393E-2,-1.0530849E-3,4.691028E-3,3.224138E-2,7.117027E-2,2.3675403E-2,1.3333769E-2,-3.2409888E-2,1.3884346E-2,1.9000497E-2,-7.456204E-3,-1.4658436E-2,-1.7390727E-3,2.4436338E-2,-2.3650592E-3,1.6993256E-2,9.596998E-3,2.2506213E-2,1.0910135E-2,4.5700237E-4,8.088528E-3,1.6420534E-2,8.145706E-3,3.1167312E-2,2.2259302E-2,1.10762855E-2,-2.675053E-2,4.42519E-2,1.9921524E-2,1.1986653E-2,2.3111855E-3],"categories":[],"categories_nodes":[],"categories_segments":[],"categories_sizes":[],"default_left":[0,0,0,0,0,0,0,0,0,0,0,0,0,0,0,0,0,0,0,0,0,0,0,0,0,0,0,0,0,0,0,0,0,0,0,0,0,0,0,0,0,0,0,0,0,0,0,0,0,0,0,0,0,0,0,0,0,0,0,0,0,0,0,0,0,0,0,0,0,0,0,0,0,0,0,0,0,0,0,0,0,0,0,0,0,0,0,0,0,0,0,0,0,0,0,0,0,0,0,0,0,0,0,0,0,0,0,0,0,0,0,0,0,0,0,0,0,0,0,0,0,0,0,0,0,0,0],"id":0,"left_children":[1,3,5,7,9,11,13,15,17,19,21,23,25,27,29,31,33,35,37,39,41,43,45,47,49,51,53,55,57,59,61,63,65,67,69,71,73,75,77,79,81,83,85,87,89,91,93,95,97,99,101,103,105,107,109,111,113,115,117,119,121,123,125,-1,-1,-1,-1,-1,-1,-1,-1,-1,-1,-1,-1,-1,-1,-1,-1,-1,-1,-1,-1,-1,-1,-1,-1,-1,-1,-1,-1,-1,-1,-1,-1,-1,-1,-1,-1,-1,-1,-1,-1,-1,-1,-1,-1,-1,-1,-1,-1,-1,-1,-1,-1,-1,-1,-1,-1,-1,-1,-1,-1,-1,-1,-1,-1],"loss_changes":[8.013957E1,5.1475517E1,5.1443356E1,3.0652996E1,8.906399E0,2.40533E1,1.847905E1,2.3749283E1,9.335785E0,2.3562546E0,3.7226686E0,5.0323505E0,6.7726936E0,3.5037174E0,5.550316E0,1.7463772E1,1.1981544E0,4.7261734E0,9.095743E-1,4.5396805E-1,8.9129925E-1,4.121982E0,1.4358912E0,2.417953E0,6.188116E-1,2.7319584E0,1.271637E0,2.2536278E0,1.3483541E0,2.0908737E0,1.0771623E0,1.8483547E1,1.8929286E0,8.352604E-1,3.0536887E-1,4.2296753E0,5.633452E-1,5.9346676E-1,4.80752E-1,5.154495E-1,2.0573676E-1,5.8713865E-1,5.0382614E-1,2.2779527E0,6.543851E-1,9.416411E-1,6.706581E-1,1.5108106E0,2.4659545E0,3.030038E-1,3.9384222E-1,2.3083572E0,3.0585125E-1,6.7787814E-1,5.991187E-1,9.384117E-1,6.347847E-1,1.24015E0,3.2230568E-1,2.4291E0,6.6120255E-1,4.1412115E-1,4.9177897E-1,0E0,0E0,0E0,0E0,0E0,0E0,0E0,0E0,0E0,0E0,0E0,0E0,0E0,0E0,0E0,0E0,0E0,0E0,0E0,0E0,0E0,0E0,0E0,0E0,0E0,0E0,0E0,0E0,0E0,0E0,0E0,0E0,0E0,0E0,0E0,0E0,0E0,0E0,0E0,0E0,0E0,0E0,0E0,0E0,0E0,0E0,0E0,0E0,0E0,0E0,0E0,0E0,0E0,0E0,0E0,0E0,0E0,0E0,0E0,0E0,0E0,0E0,0E0,0E0],"parents":[2147483647,0,0,1,1,2,2,3,3,4,4,5,5,6,6,7,7,8,8,9,9,10,10,11,11,12,12,13,13,14,14,15,15,16,16,17,17,18,18,19,19,20,20,21,21,22,22,23,23,24,24,25,25,26,26,27,27,28,28,29,29,30,30,31,31,32,32,33,33,34,34,35,35,36,36,37,37,38,38,39,39,40,40,41,41,42,42,43,43,44,44,45,45,46,46,47,47,48,48,49,49,50,50,51,51,52,52,53,53,54,54,55,55,56,56,57,57,58,58,59,59,60,60,61,61,62,62],"right_children":[2,4,6,8,10,12,14,16,18,20,22,24,26,28,30,32,34,36,38,40,42,44,46,48,50,52,54,56,58,60,62,64,66,68,70,72,74,76,78,80,82,84,86,88,90,92,94,96,98,100,102,104,106,108,110,112,114,116,118,120,122,124,126,-1,-1,-1,-1,-1,-1,-1,-1,-1,-1,-1,-1,-1,-1,-1,-1,-1,-1,-1,-1,-1,-1,-1,-1,-1,-1,-1,-1,-1,-1,-1,-1,-1,-1,-1,-1,-1,-1,-1,-1,-1,-1,-1,-1,-1,-1,-1,-1,-1,-1,-1,-1,-1,-1,-1,-1,-1,-1,-1,-1,-1,-1,-1,-1],"split_conditions":[2.8156552E-1,2.1409887E-1,3.8240558E-1,7.592355E-1,8.830507E-3,8.547065E-1,4.053702E-1,9.843291E-1,2.0702046E-1,4.6611456E-3,1.992201E-1,3.689529E-1,2.1750693E-1,4.8537485E-2,6.8480454E-2,2.8800932E-1,8.8103056E-2,1.9824718E-1,1.445144E-1,1.4859246E-1,3.392331E-1,3.168322E-1,3.927773E-1,1.4519468E-2,2.6328074E-2,2.232415E-1,3.2246614E-1,3.6053714E-1,1.315534E-1,8.732788E-1,2.7999273E-2,2.7147633E-1,3.2358757E-1,1.313099E-1,1.7307158E-1,2.4526407E-1,2.0430751E-1,1.5634729E-1,1.3749385E-2,1.4882747E-3,1.9970573E-1,3.7939572E-1,3.0141631E-2,3.4913036E-1,5.685492E-3,3.1421888E-1,6.596831E-1,2.7210534E-1,3.0946067E-1,2.4337941E-1,9.743086E-3,2.2245696E-1,5.1375222E-3,2.7049518E-1,1.039181E-2,7.5427564E-3,4.08817E-2,4.8976713E-1,1.030155E-2,2.9373305E-2,6.6756827E-1,9.4686365E-3,3.7359096E-2,-6.848821E-3,8.966029E-3,5.0370097E-3,1.5285802E-2,-6.363062E-2,-2.6047686E-2,-2.871736E-2,2.3552569E-2,-2.9289057E-2,7.7646733E-3,-1.3159832E-2,2.7790833E-3,-1.247716E-2,9.117462E-2,1.4406237E-2,-3.969113E-3,4.746554E-2,3.1563465E-2,1.49294445E-2,3.0247118E-2,7.895971E-3,2.0780213E-2,1.9218192E-2,3.3276178E-2,-1.950717E-3,1.2974564E-2,1.9844076E-2,9.924597E-3,1.4611874E-3,1.3059164E-2,1.6899815E-2,3.2247633E-2,7.0172665E-3,2.4005393E-2,-1.0530849E-3,4.691028E-3,3.224138E-2,7.117027E-2,2.3675403E-2,1.3333769E-2,-3.2409888E-2,1.3884346E-2,1.9000497E-2,-7.456204E-3,-1.4658436E-2,-1.7390727E-3,2.4436338E-2,-2.3650592E-3,1.6993256E-2,9.596998E-3,2.2506213E-2,1.0910135E-2,4.5700237E-4,8.088528E-3,1.6420534E-2,8.145706E-3,3.1167312E-2,2.2259302E-2,1.10762855E-2,-2.675053E-2,4.42519E-2,1.9921524E-2,1.1986653E-2,2.3111855E-3],"split_indices":[4,17,6,6,7,4,4,11,14,11,10,0,6,0,0,3,3,4,4,4,5,5,6,5,14,14,14,4,17,4,7,0,6,4,9,3,7,10,7,18,4,10,15,0,11,17,17,7,6,7,11,1,15,6,15,11,1,6,11,1,6,7,8,0,0,0,0,0,0,0,0,0,0,0,0,0,0,0,0,0,0,0,0,0,0,0,0,0,0,0,0,0,0,0,0,0,0,0,0,0,0,0,0,0,0,0,0,0,0,0,0,0,0,0,0,0,0,0,0,0,0,0,0,0,0,0,0],"split_type":[0,0,0,0,0,0,0,0,0,0,0,0,0,0,0,0,0,0,0,0,0,0,0,0,0,0,0,0,0,0,0,0,0,0,0,0,0,0,0,0,0,0,0,0,0,0,0,0,0,0,0,0,0,0,0,0,0,0,0,0,0,0,0,0,0,0,0,0,0,0,0,0,0,0,0,0,0,0,0,0,0,0,0,0,0,0,0,0,0,0,0,0,0,0,0,0,0,0,0,0,0,0,0,0,0,0,0,0,0,0,0,0,0,0,0,0,0,0,0,0,0,0,0,0,0,0,0],"sum_hessian":[2.07645E5,1.33791E5,7.3854E4,1.14411E5,1.938E4,3.7451E4,3.6403E4,1.00769E5,1.3642E4,4.038E3,1.5342E4,3.2451E4,5E3,2.1455E4,1.4948E4,9.9975E4,7.94E2,1.0012E4,3.63E3,1.461E3,2.577E3,1.038E4,4.962E3,3.0942E4,1.509E3,3.23E3,1.77E3,1.1968E4,9.487E3,1.2083E4,2.865E3,9.3466E4,6.509E3,7.15E2,7.9E1,8.153E3,1.859E3,1.696E3,1.934E3,1.137E3,3.24E2,1.456E3,1.121E3,7.918E3,2.462E3,2.673E3,2.289E3,3.341E3,2.7601E4,1.56E2,1.353E3,2.815E3,4.15E2,1.463E3,3.07E2,8.823E3,3.145E3,7.665E3,1.822E3,1.1601E4,4.82E2,6.99E2,2.166E3,8.626E4,7.206E3,3.078E3,3.431E3,6.55E2,6E1,6.8E1,1.1E1,7.866E3,2.87E2,1.632E3,2.27E2,1.692E3,4E0,1.37E2,1.797E3,2.37E2,9E2,1.75E2,1.49E2,9.85E2,4.71E2,7.94E2,3.27E2,6.856E3,1.062E3,1.036E3,1.426E3,1.017E3,1.656E3,1.994E3,2.95E2,2.774E3,5.67E2,1.5994E4,1.1607E4,1.35E2,2.1E1,6E2,7.53E2,2.715E3,1E2,4.3E1,3.72E2,7.09E2,7.54E2,1.78E2,1.29E2,1.998E3,6.825E3,2.635E3,5.1E2,3.837E3,3.828E3,1.144E3,6.78E2,7.057E3,4.544E3,4.37E2,4.5E1,7E1,6.29E2,1.468E3,6.98E2],"tree_param":{"num_deleted":"0","num_feature":"20","num_nodes":"127","size_leaf_vector":"1"}},{"base_weights":[3.2615874E-6,-1.2794884E-2,1.5683582E-2,-1.9946268E-2,2.1674743E-2,3.1516937E-4,3.3027727E-2,-1.3188198E-2,-4.475176E-2,4.6768803E-2,1.1442093E-2,4.8075616E-3,-5.465603E-2,1.7924333E-2,5.4000985E-2,-1.0747431E-2,-9.471369E-2,-5.5303276E-2,-7.976096E-3,6.426043E-2,2.9835396E-2,2.4851732E-2,2.5972474E-4,2.756008E-3,4.8708655E-2,-7.849834E-2,-2.0575576E-2,3.1078065E-2,1.4262107E-2,6.072664E-2,2.9673928E-2,-1.36508215E-2,3.205557E-2,-1.15996696E-1,-1.8631414E-2,-6.0867503E-2,-8.059459E-3,-1.9251874E-2,5.1719965E-3,9.610077E-2,5.762563E-2,5.6429215E-2,2.0265594E-2,4.970318E-2,1.7775029E-2,-6.2510525E-3,2.276521E-2,-8.378397E-3,1.1068875E-2,6.709873E-2,3.4471124E-2,-8.488803E-2,-4.5708716E-3,-3.4227498E-2,4.0980317E-2,2.9907731E-2,9.868907E-2,1.9234076E-2,2.5187458E-3,6.714901E-2,3.494211E-2,5.6828044E-2,2.2613747E-2,-4.921179E-3,7.7180825E-3,4.368118E-3,1.4345952E-2,-3.975454E-2,-1.2697951E-2,-8.032657E-3,3.515715E-2,-1.9319804E-2,3.7180998E-3,-8.973643E-3,2.0904855E-3,-6.0715666E-3,8.47467E-2,-3.9897007E-3,4.798624E-3,3.1066155E-2,-4.6288385E-3,1.2672299E-2,2.375716E-2,6.529007E-3,2.23014E-2,3.9516324E-3,1.6922E-2,1.9533068E-2,1.0678493E-3,3.6579818E-3,1.4426445E-2,-3.595572E-3,9.056965E-3,-8.952848E-5,1.1576708E-2,-3.2127239E-3,1.0941507E-2,-8.1663E-4,6.6257366E-3,6.257169E-2,1.888114E-2,2.052728E-2,7.2934004E-3,-2.7236879E-2,4.1602333E-3,-4.52788E-3,6.548371E-2,-1.4187611E-2,-3.0494044E-3,2.2540199E-2,-2.3860866E-3,1.1924449E-2,7.2063645E-3,3.575956E-2,-3.655196E-4,7.1484437E-3,2.2416192E-3,3.901009E-4,2.2739498E-2,1.594554E-2,2.276834E-2,1.2088326E-2,-4.8926314E-3,-2.6869508E-2,1.8011644E-2,4.025902E-3,1.343827E-2],"categories":[],"categories_nodes":[],"categories_segments":[],"categories_sizes":[],"default_left":[0,0,0,0,0,0,0,0,0,0,0,0,0,0,0,0,0,0,0,0,0,0,0,0,0,0,0,0,0,0,0,0,0,0,0,0,0,0,0,0,0,0,0,0,0,0,0,0,0,0,0,0,0,0,0,0,0,0,0,0,0,0,0,0,0,0,0,0,0,0,0,0,0,0,0,0,0,0,0,0,0,0,0,0,0,0,0,0,0,0,0,0,0,0,0,0,0,0,0,0,0,0,0,0,0,0,0,0,0,0,0,0,0,0,0,0,0,0,0,0,0,0,0,0,0,0,0],"id":1,"left_children":[1,3,5,7,9,11,13,15,17,19,21,23,25,27,29,31,33,35,37,39,41,43,45,47,49,51,53,55,57,59,61,63,65,67,69,71,73,75,77,79,81,83,85,87,89,91,93,95,97,99,101,103,105,107,109,111,113,115,117,119,121,123,125,-1,-1,-1,-1,-1,-1,-1,-1,-1,-1,-1,-1,-1,-1,-1,-1,-1,-1,-1,-1,-1,-1,-1,-1,-1,-1,-1,-1,-1,-1,-1,-1,-1,-1,-1,-1,-1,-1,-1,-1,-1,-1,-1,-1,-1,-1,-1,-1,-1,-1,-1,-1,-1,-1,-1,-1,-1,-1,-1,-1,-1,-1,-1,-1],"loss_changes":[4.167039E1,2.8183655E1,2.4873549E1,1.5872475E1,5.0438843E0,1.2218717E1,1.3886116E1,1.4806437E1,7.866268E0,1.6834192E0,2.0927172E0,4.119459E0,3.0357227E0,1.2273626E0,3.00103E0,8.979594E0,3.5002995E0,4.140587E0,6.7036027E-1,5.8555126E-1,7.351179E-1,1.1151645E0,1.1153685E0,4.044821E0,5.323415E-1,1.0383615E0,1.2955513E0,4.362054E-1,1.1641426E0,2.3784523E0,7.611575E-1,7.3359594E0,1.2652202E0,2.0509777E0,5.274521E-1,3.6473198E0,5.4567504E-1,7.303726E-1,4.176442E-1,4.0142584E-1,7.6569414E-1,4.733119E-1,5.450607E-1,9.9934626E-1,8.354331E-1,1.2340565E0,6.2335426E-1,1.953035E0,3.8014479E0,5.108657E-1,3.960718E-1,1.18087E0,4.159864E-1,3.9593923E-1,4.6855426E-1,3.1514692E-1,1.9275588E-1,7.5675154E-1,5.295373E-1,1.404808E0,7.876537E-1,3.9080548E-1,6.4340687E-1,0E0,0E0,0E0,0E0,0E0,0E0,0E0,0E0,0E0,0E0,0E0,0E0,0E0,0E0,0E0,0E0,0E0,0E0,0E0,0E0,0E0,0E0,0E0,0E0,0E0,0E0,0E0,0E0,0E0,0E0,0E0,0E0,0E0,0E0,0E0,0E0,0E0,0E0,0E0,0E0,0E0,0E0,0E0,0E0,0E0,0E0,0E0,0E0,0E0,0E0,0E0,0E0,0E0,0E0,0E0,0E0,0E0,0E0,0E0,0E0,0E0,0E0,0E0,0E0],"parents":[2147483647,0,0,1,1,2,2,3,3,4,4,5,5,6,6,7,7,8,8,9,9,10,10,11,11,12,12,13,13,14,14,15,15,16,16,17,17,18,18,19,19,20,20,21,21,22,22,23,23,24,24,25,25,26,26,27,27,28,28,29,29,30,30,31,31,32,32,33,33,34,34,35,35,36,36,37,37,38,38,39,39,40,40,41,41,42,42,43,43,44,44,45,45,46,46,47,47,48,48,49,49,50,50,51,51,52,52,53,53,54,54,55,55,56,56,57,57,58,58,59,59,60,60,61,61,62,62],"right_children":[2,4,6,8,10,12,14,16,18,20,22,24,26,28,30,32,34,36,38,40,42,44,46,48,50,52,54,56,58,60,62,64,66,68,70,72,74,76,78,80,82,84,86,88,90,92,94,96,98,100,102,104,106,108,110,112,114,116,118,120,122,124,126,-1,-1,-1,-1,-1,-1,-1,-1,-1,-1,-1,-1,-1,-1,-1,-1,-1,-1,-1,-1,-1,-1,-1,-1,-1,-1,-1,-1,-1,-1,-1,-1,-1,-1,-1,-1,-1,-1,-1,-1,-1,-1,-1,-1,-1,-1,-1,-1,-1,-1,-1,-1,-1,-1,-1,-1,-1,-1,-1,-1,-1,-1,-1,-1],"split_conditions":[2.4676885E-1,1.9820386E-1,4.037694E-1,6.963485E-1,1.1724903E-2,8.898733E-1,3.6053714E-1,8.8355255E-1,2.2860375E-1,6.184163E-3,1.0346871E-2,3.911211E-1,1.9561143E-1,8.029453E-3,6.356393E-2,3.4689662E-1,1.6522288E-1,1.9712825E-1,1.5913579E-1,4.599452E-2,4.0995553E-3,9.449023E-2,2.4759234E-1,3.5427445E-1,9.235997E-3,1.3347545E-1,3.2246614E-1,5.060871E-1,4.259043E-2,2.7452206E-2,2.5494345E-2,3.3068618E-1,3.2358757E-1,1.5771602E-1,3.0226746E-1,1.6206148E-1,2.5700554E-1,2.4759234E-1,1.1204611E-2,8.128103E-3,4.1574654E-1,7.5952984E-2,3.4913036E-1,7.0803106E-1,3.3068618E-1,3.8704783E-1,3.4825155E-1,4.3198696E-1,2.6745954E-1,8.210796E-3,5.6627367E-2,1.5644166E-1,6.14047E-1,2.8449714E-1,1.039181E-2,3.6677863E-2,1.0427127E-1,6.505843E-1,3.0758992E-1,4.34246E-1,3.641143E-1,1.6970389E-2,5.090408E-1,-4.921179E-3,7.7180825E-3,4.368118E-3,1.4345952E-2,-3.975454E-2,-1.2697951E-2,-8.032657E-3,3.515715E-2,-1.9319804E-2,3.7180998E-3,-8.973643E-3,2.0904855E-3,-6.0715666E-3,8.47467E-2,-3.9897007E-3,4.798624E-3,3.1066155E-2,-4.6288385E-3,1.2672299E-2,2.375716E-2,6.529007E-3,2.23014E-2,3.9516324E-3,1.6922E-2,1.9533068E-2,1.0678493E-3,3.6579818E-3,1.4426445E-2,-3.595572E-3,9.056965E-3,-8.952848E-5,1.1576708E-2,-3.2127239E-3,1.0941507E-2,-8.1663E-4,6.6257366E-3,6.257169E-2,1.888114E-2,2.052728E-2,7.2934004E-3,-2.7236879E-2,4.1602333E-3,-4.52788E-3,6.548371E-2,-1.4187611E-2,-3.0494044E-3,2.2540199E-2,-2.3860866E-3,1.1924449E-2,7.2063645E-3,3.575956E-2,-3.655196E-4,7.1484437E-3,2.2416192E-3,3.901009E-4,2.2739498E-2,1.594554E-2,2.276834E-2,1.2088326E-2,-4.8926314E-3,-2.6869508E-2,1.8011644E-2,4.025902E-3,1.343827E-2],"split_indices":[4,17,6,6,7,4,4,11,14,11,3,0,6,3,0,3,3,7,4,4,12,4,10,4,3,0,14,10,1,3,7,0,6,6,6,9,7,10,12,16,5,10,0,6,0,5,6,2,6,5,1,11,15,6,15,0,8,6,19,4,14,5,4,0,0,0,0,0,0,0,0,0,0,0,0,0,0,0,0,0,0,0,0,0,0,0,0,0,0,0,0,0,0,0,0,0,0,0,0,0,0,0,0,0,0,0,0,0,0,0,0,0,0,0,0,0,0,0,0,0,0,0,0,0,0,0,0],"split_type":[0,0,0,0,0,0,0,0,0,0,0,0,0,0,0,0,0,0,0,0,0,0,0,0,0,0,0,0,0,0,0,0,0,0,0,0,0,0,0,0,0,0,0,0,0,0,0,0,0,0,0,0,0,0,0,0,0,0,0,0,0,0,0,0,0,0,0,0,0,0,0,0,0,0,0,0,0,0,0,0,0,0,0,0,0,0,0,0,0,0,0,0,0,0,0,0,0,0,0,0,0,0,0,0,0,0,0,0,0,0,0,0,0,0,0,0,0,0,0,0,0,0,0,0,0,0,0],"sum_hessian":[2.07645E5,1.1433E5,9.3315E4,9.4686E4,1.9644E4,4.9476E4,4.3839E4,7.4414E4,2.0272E4,5.689E3,1.3955E4,4.5739E4,3.737E3,2.5487E4,1.8352E4,7.2252E4,2.162E3,1.5752E4,4.52E3,2.797E3,2.892E3,6.345E3,7.61E3,4.3698E4,2.041E3,2.198E3,1.539E3,5.549E3,1.9938E4,1.4376E4,3.976E3,6.7663E4,4.589E3,1.689E3,4.73E2,1.4092E4,1.66E3,2.433E3,2.087E3,4.8E2,2.317E3,7.64E2,2.128E3,1.405E3,4.94E3,5.903E3,1.707E3,1.8679E4,2.5019E4,8.89E2,1.152E3,2.023E3,1.75E2,1.26E3,2.79E2,5.456E3,9.3E1,1.4007E4,5.931E3,1.1508E4,2.868E3,8.19E2,3.157E3,6.3242E4,4.421E3,2.176E3,2.413E3,1.379E3,3.1E2,4.47E2,2.6E1,1.3444E4,6.48E2,6.76E2,9.84E2,2.426E3,7E0,7.71E2,1.316E3,4.5E2,3E1,1.354E3,9.63E2,2.61E2,5.03E2,1.78E3,3.48E2,1.053E3,3.52E2,4.173E3,7.67E2,5.101E3,8.02E2,6.95E2,1.012E3,1.7757E4,9.22E2,1.1111E4,1.3908E4,2.4E1,8.65E2,2.64E2,8.88E2,1.909E3,1.14E2,1.68E2,7E0,8.16E2,4.44E2,1.64E2,1.15E2,2.04E3,3.416E3,7.7E1,1.6E1,1.0072E4,3.935E3,5.835E3,9.6E1,4.428E3,7.08E3,2.597E3,2.71E2,1.7E1,8.02E2,2.233E3,9.24E2],"tree_param":{"num_deleted":"0","num_feature":"20","num_nodes":"127","size_leaf_vector":"1"}},{"base_weights":[4.8144675E-6,-9.885413E-3,1.0380194E-2,-1.645605E-2,1.2172406E-2,-2.3787317E-3,2.0051856E-2,-1.9466827E-2,2.8035527E-2,6.050487E-3,3.9074752E-2,2.6393852E-3,-3.302657E-2,1.1821149E-2,3.7686966E-2,-2.1911101E-2,1.8394968E-2,5.4870393E-2,2.0463705E-2,-5.550123E-3,2.6544863E-2,4.5569554E-2,1.4136281E-2,3.5837418E-4,4.1437186E-2,-4.268919E-2,1.245783E-2,1.7578194E-2,4.1243047E-3,4.0801864E-2,-4.864461E-3,-2.4648454E-2,1.3068511E-2,1.1876549E-2,6.8021595E-2,3.290419E-2,6.942387E-2,-7.066967E-3,2.6436733E-2,-1.2628592E-2,2.2710264E-2,1.5111072E-2,4.67021E-2,7.276275E-2,3.7256584E-2,3.9243214E-3,5.447707E-2,-7.2904998E-3,1.0225779E-2,9.054411E-2,2.8511131E-2,-4.6371277E-2,6.309213E-2,2.3895977E-2,-2.1523943E-2,1.2424549E-2,2.9546184E-2,2.3377081E-3,4.2777054E-2,4.3290604E-2,3.9026781E-3,-1.6135954E-3,-6.325708E-2,-1.8347073E-2,-6.428461E-3,8.462605E-3,6.028386E-4,9.732013E-3,2.0510983E-4,3.462402E-2,1.2714656E-2,3.4700766E-2,7.141961E-3,2.333811E-2,-1.6025755E-3,-7.365295E-3,3.2482482E-3,-6.308781E-4,1.0679912E-2,-5.5680335E-3,3.7419123E-3,3.8310908E-2,6.3071987E-3,9.5841306E-4,9.175743E-3,9.522814E-3,2.0563345E-2,1.4195671E-2,2.8332885E-2,1.8054035E-2,9.286103E-3,2.2750346E-2,-1.2963673E-3,1.5018704E-2,9.345078E-2,-2.8047399E-3,1.0011081E-2,2.3488374E-3,1.9163342E-2,4.3307114E-2,2.148126E-2,1.743149E-2,6.290264E-3,-1.834243E-2,-5.9508123E-3,3.178344E-2,4.91446E-3,1.6821384E-2,1.0519091E-4,-1.0002438E-3,-1.4734385E-2,2.9538223E-3,9.239028E-3,1.5748482E-2,7.717461E-3,2.9298724E-4,1.5011264E-2,1.0271468E-2,2.506079E-2,9.423128E-3,1.6261753E-2,4.779202E-3,-2.3727791E-2,3.032398E-4,-2.001959E-2,-1.2561329E-2,-5.8214802E-2],"categories":[],"categories_nodes":[],"categories_segments":[],"categories_sizes":[],"default_left":[0,0,0,0,0,0,0,0,0,0,0,0,0,0,0,0,0,0,0,0,0,0,0,0,0,0,0,0,0,0,0,0,0,0,0,0,0,0,0,0,0,0,0,0,0,0,0,0,0,0,0,0,0,0,0,0,0,0,0,0,0,0,0,0,0,0,0,0,0,0,0,0,0,0,0,0,0,0,0,0,0,0,0,0,0,0,0,0,0,0,0,0,0,0,0,0,0,0,0,0,0,0,0,0,0,0,0,0,0,0,0,0,0,0,0,0,0,0,0,0,0,0,0,0,0,0,0],"id":2,"left_children":[1,3,5,7,9,11,13,15,17,19,21,23,25,27,29,31,33,35,37,39,41,43,45,47,49,51,53,55,57,59,61,63,65,67,69,71,73,75,77,79,81,83,85,87,89,91,93,95,97,99,101,103,105,107,109,111,113,115,117,119,121,123,125,-1,-1,-1,-1,-1,-1,-1,-1,-1,-1,-1,-1,-1,-1,-1,-1,-1,-1,-1,-1,-1,-1,-1,-1,-1,-1,-1,-1,-1,-1,-1,-1,-1,-1,-1,-1,-1,-1,-1,-1,-1,-1,-1,-1,-1,-1,-1,-1,-1,-1,-1,-1,-1,-1,-1,-1,-1,-1,-1,-1,-1,-1,-1,-1],"loss_changes":[2.1307669E1,1.5407981E1,1.2505157E1,1.0972736E1,4.018297E0,6.7202888E0,8.366404E0,7.1003323E0,1.0538335E0,4.726087E0,7.319474E-1,3.3230042E0,2.7025685E0,1.7414412E0,2.4313087E0,6.9008484E0,1.5043778E0,3.6279535E-1,6.663393E-1,2.5395977E0,1.6552477E0,8.083792E-1,3.8537937E-1,2.676779E0,1.3208907E0,1.9780607E0,4.195206E-1,1.3864188E0,1.1613677E0,1.5693398E0,2.3756076E-1,7.856472E0,8.7580043E-1,9.468728E-1,6.512613E-1,3.4135243E-1,4.2969847E-1,2.2646868E-1,8.706353E-1,1.5117713E0,4.4754362E-1,8.455726E-1,8.473706E-1,4.5834637E-1,3.9547086E-1,4.4384566E-1,1.9886321E-1,1.6726665E0,1.9906251E0,4.3200135E-1,3.6758018E-1,1.919632E0,3.4055066E-1,6.113462E-1,1.3634452E-1,7.4429464E-1,5.9207726E-1,1.043726E0,2.557286E-1,2.074524E0,1.0803869E0,2.0292139E-1,1.7648497E-1,0E0,0E0,0E0,0E0,0E0,0E0,0E0,0E0,0E0,0E0,0E0,0E0,0E0,0E0,0E0,0E0,0E0,0E0,0E0,0E0,0E0,0E0,0E0,0E0,0E0,0E0,0E0,0E0,0E0,0E0,0E0,0E0,0E0,0E0,0E0,0E0,0E0,0E0,0E0,0E0,0E0,0E0,0E0,0E0,0E0,0E0,0E0,0E0,0E0,0E0,0E0,0E0,0E0,0E0,0E0,0E0,0E0,0E0,0E0,0E0,0E0,0E0,0E0,0E0],"parents":[2147483647,0,0,1,1,2,2,3,3,4,4,5,5,6,6,7,7,8,8,9,9,10,10,11,11,12,12,13,13,14,14,15,15,16,16,17,17,18,18,19,19,20,20,21,21,22,22,23,23,24,24,25,25,26,26,27,27,28,28,29,29,30,30,31,31,32,32,33,33,34,34,35,35,36,36,37,37,38,38,39,39,40,40,41,41,42,42,43,43,44,44,45,45,46,46,47,47,48,48,49,49,50,50,51,51,52,52,53,53,54,54,55,55,56,56,57,57,58,58,59,59,60,60,61,61,62,62],"right_children":[2,4,6,8,10,12,14,16,18,20,22,24,26,28,30,32,34,36,38,40,42,44,46,48,50,52,54,56,58,60,62,64,66,68,70,72,74,76,78,80,82,84,86,88,90,92,94,96,98,100,102,104,106,108,110,112,114,116,118,120,122,124,126,-1,-1,-1,-1,-1,-1,-1,-1,-1,-1,-1,-1,-1,-1,-1,-1,-1,-1,-1,-1,-1,-1,-1,-1,-1,-1,-1,-1,-1,-1,-1,-1,-1,-1,-1,-1,-1,-1,-1,-1,-1,-1,-1,-1,-1,-1,-1,-1,-1,-1,-1,-1,-1,-1,-1,-1,-1,-1,-1,-1,-1,-1,-1,-1],"split_conditions":[2.328071E-1,1.5593614E-1,3.6393833E-1,3.4716868E-1,3.6158067E-1,8.174819E-1,3.8897794E-1,1.3334616E-1,5.729467E-2,1.753716E-1,7.3827E-1,3.2428494E-1,2.0193698E-1,3.664866E-2,7.761675E-2,2.6546088E-1,4.4001132E-1,2.4398234E-1,5.9213877E-2,2.3080912E-1,4.4602826E-1,5.8998154E-3,9.782483E-2,3.8897794E-1,1.06421806E-1,2.0259662E-1,9.4290775E-1,3.220093E-1,3.689529E-1,7.370821E-1,4.356041E-2,2.0695563E-1,9.9256724E-2,1.55810425E-2,8.965858E-3,4.2549907E-3,7.3243594E-1,6.1139865E-3,2.1750693E-1,4.1258478E-1,3.079466E-3,3.5638833E-1,4.1654044E-1,1.23112574E-1,3.4833283E-3,6.58936E-2,1.0125081E-1,2.8170595E-1,3.096807E-1,3.0066264E-3,3.5916045E-2,2.105971E-1,9.564068E-3,4.823915E-3,2.5153751E-3,7.5952984E-2,7.7008232E-3,9.075523E-2,5.206362E-1,4.7780696E-1,5.2754843E-1,2.6193336E-1,8.8080384E-2,-1.8347073E-2,-6.428461E-3,8.462605E-3,6.028386E-4,9.732013E-3,2.0510983E-4,3.462402E-2,1.2714656E-2,3.4700766E-2,7.141961E-3,2.333811E-2,-1.6025755E-3,-7.365295E-3,3.2482482E-3,-6.308781E-4,1.0679912E-2,-5.5680335E-3,3.7419123E-3,3.8310908E-2,6.3071987E-3,9.5841306E-4,9.175743E-3,9.522814E-3,2.0563345E-2,1.4195671E-2,2.8332885E-2,1.8054035E-2,9.286103E-3,2.2750346E-2,-1.2963673E-3,1.5018704E-2,9.345078E-2,-2.8047399E-3,1.0011081E-2,2.3488374E-3,1.9163342E-2,4.3307114E-2,2.148126E-2,1.743149E-2,6.290264E-3,-1.834243E-2,-5.9508123E-3,3.178344E-2,4.91446E-3,1.6821384E-2,1.0519091E-4,-1.0002438E-3,-1.4734385E-2,2.9538223E-3,9.239028E-3,1.5748482E-2,7.717461E-3,2.9298724E-4,1.5011264E-2,1.0271468E-2,2.506079E-2,9.423128E-3,1.6261753E-2,4.779202E-3,-2.3727791E-2,3.032398E-4,-2.001959E-2,-1.2561329E-2,-5.8214802E-2],"split_indices":[4,17,6,9,5,4,4,2,4,10,5,1,14,1,1,3,1,6,3,0,6,7,10,4,6,12,4,4,0,6,16,6,4,5,11,16,6,16,6,17,2,17,10,0,12,0,8,17,11,19,17,6,13,3,18,10,15,19,5,6,14,8,17,0,0,0,0,0,0,0,0,0,0,0,0,0,0,0,0,0,0,0,0,0,0,0,0,0,0,0,0,0,0,0,0,0,0,0,0,0,0,0,0,0,0,0,0,0,0,0,0,0,0,0,0,0,0,0,0,0,0,0,0,0,0,0,0],"split_type":[0,0,0,0,0,0,0,0,0,0,0,0,0,0,0,0,0,0,0,0,0,0,0,0,0,0,0,0,0,0,0,0,0,0,0,0,0,0,0,0,0,0,0,0,0,0,0,0,0,0,0,0,0,0,0,0,0,0,0,0,0,0,0,0,0,0,0,0,0,0,0,0,0,0,0,0,0,0,0,0,0,0,0,0,0,0,0,0,0,0,0,0,0,0,0,0,0,0,0,0,0,0,0,0,0,0,0,0,0,0,0,0,0,0,0,0,0,0,0,0,0,0,0,0,0,0,0],"sum_hessian":[2.07645E5,1.06308E5,1.01337E5,8.1909E4,2.4399E4,4.3695E4,5.7642E4,7.6718E4,5.191E3,1.9877E4,4.522E3,3.7548E4,6.147E3,3.9301E4,1.8341E4,7.2066E4,4.652E3,1.141E3,4.05E3,1.2693E4,7.184E3,3.587E3,9.35E2,3.5464E4,2.084E3,5.07E3,1.077E3,2.2483E4,1.6818E4,1.709E4,1.251E3,6.6836E4,5.23E3,4.113E3,5.39E2,4.56E2,6.85E2,7.22E2,3.328E3,1.0151E4,2.542E3,4.585E3,2.599E3,8.38E2,2.749E3,7.47E2,1.88E2,1.9978E4,1.5486E4,4.33E2,1.651E3,4.9E3,1.7E2,8.06E2,2.71E2,1.5717E4,6.766E3,1.6076E4,7.42E2,1.601E4,1.08E3,1.186E3,6.5E1,5.416E3,6.142E4,2.207E3,3.023E3,1.449E3,2.664E3,1.88E2,3.51E2,4.4E1,4.12E2,6.16E2,6.9E1,3.65E2,3.57E2,8.09E2,2.519E3,8.211E3,1.94E3,3.9E1,2.503E3,2.591E3,1.994E3,1.544E3,1.055E3,3.87E2,4.51E2,5.91E2,2.158E3,7.6E1,6.71E2,1.86E2,2E0,1.9016E4,9.62E2,1.4825E4,6.61E2,1.11E2,3.22E2,3.34E2,1.317E3,3.147E3,1.753E3,8.8E1,8.2E1,3.4E2,4.66E2,1.64E2,1.07E2,1.3784E4,1.933E3,9.64E2,5.802E3,1.5631E4,4.45E2,6.15E2,1.27E2,7.668E3,8.342E3,9.44E2,1.36E2,1.141E3,4.5E1,5.7E1,8E0],"tree_param":{"num_deleted":"0","num_feature":"20","num_nodes":"127","size_leaf_vector":"1"}},{"base_weights":[5.9047666E-6,1.6730267E-3,-3.386104E-2,1.4078629E-2,-2.3885749E-3,-4.7318805E-2,-9.468048E-3,1.5420238E-2,-3.3793386E-2,-1.4192536E-2,8.582389E-4,-5.4422088E-2,-8.009584E-3,-6.1813183E-3,-6.485316E-2,1.325541E-2,4.005573E-2,-3.7964314E-2,6.0096487E-2,-2.1170001E-2,5.9032687E-3,-2.6412967E-3,1.5608941E-2,-5.856205E-2,1.2864356E-2,-1.0101355E-2,1.9213709E-1,-1.626386E-2,1.0505269E-2,-8.552757E-2,1.1929062E-1,2.6313547E-2,8.425553E-3,9.770095E-2,3.730578E-2,-3.5877287E-2,-2.2338285E-1,1.4359303E-2,1.4399232E-1,-1.8314406E-2,-6.471072E-2,1.7471667E-2,-1.23818945E-2,-3.4546193E-3,5.1887766E-2,2.8070016E-2,8.923087E-3,-6.883959E-2,-3.2664854E-2,7.981001E-2,-5.6468504E-3,-2.5222085E-2,1.5212868E-2,-5.3707273E-3,3.2470408E-1,-1.7649649E-2,1.4038701E-1,7.120276E-2,2.6027518E-3,1.5074742E-1,-9.924578E-2,1.3484061E-3,3.381335E-1,4.2435806E-3,1.0967042E-2,1.3626541E-3,7.268117E-3,1.5657423E-2,4.159084E-2,1.5730184E-2,8.719847E-3,-1.4250045E-2,-1.0719398E-3,-8.478584E-3,-7.086545E-2,-4.171212E-3,3.6625456E-2,-3.7252095E-3,5.169734E-2,-6.5855114E-3,2.639602E-3,-2.3599902E-2,-1.7068436E-3,1.602227E-2,3.6076768E-3,-1.8251953E-3,-1.7466253E-2,-1.2490381E-3,1.7738359E-2,2.8187486E-3,1.980874E-2,9.241127E-3,-2.4073836E-3,1.2513095E-3,6.3156225E-3,-2.241613E-2,9.189335E-5,-6.869438E-3,-1.5091146E-2,7.081285E-3,5.026028E-2,5.178754E-3,-2.3705235E-2,-1.0059439E-2,1.9318376E-2,2.4288133E-2,3.360876E-4,-2.2671325E-2,1.9985963E-2,3.9529964E-2,1.1646937E-1,-5.954825E-3,2.6752349E-2,6.913509E-4,1.0711338E-1,2.9770505E-2,-4.2279484E-3,-1.0793728E-2,3.3405805E-3,1.0366333E-1,-1.1012399E-2,-3.1172948E-2,3.4687594E-2,-2.348153E-2,6.599003E-2,1.2685455E-1,-2.5523447E-2],"categories":[],"categories_nodes":[],"categories_segments":[],"categories_sizes":[],"default_left":[0,0,0,0,0,0,0,0,0,0,0,0,0,0,0,0,0,0,0,0,0,0,0,0,0,0,0,0,0,0,0,0,0,0,0,0,0,0,0,0,0,0,0,0,0,0,0,0,0,0,0,0,0,0,0,0,0,0,0,0,0,0,0,0,0,0,0,0,0,0,0,0,0,0,0,0,0,0,0,0,0,0,0,0,0,0,0,0,0,0,0,0,0,0,0,0,0,0,0,0,0,0,0,0,0,0,0,0,0,0,0,0,0,0,0,0,0,0,0,0,0,0,0,0,0,0,0],"id":3,"left_children":[1,3,5,7,9,11,13,15,17,19,21,23,25,27,29,31,33,35,37,39,41,43,45,47,49,51,53,55,57,59,61,63,65,67,69,71,73,75,77,79,81,83,85,87,89,91,93,95,97,99,101,103,105,107,109,111,113,115,117,119,121,123,125,-1,-1,-1,-1,-1,-1,-1,-1,-1,-1,-1,-1,-1,-1,-1,-1,-1,-1,-1,-1,-1,-1,-1,-1,-1,-1,-1,-1,-1,-1,-1,-1,-1,-1,-1,-1,-1,-1,-1,-1,-1,-1,-1,-1,-1,-1,-1,-1,-1,-1,-1,-1,-1,-1,-1,-1,-1,-1,-1,-1,-1,-1,-1,-1],"loss_changes":[1.1723817E1,9.971796E0,3.19761E0,3.13556E0,5.7140403E0,1.7525358E0,6.3035345E-1,2.5318117E0,5.235115E-1,4.5099497E0,6.036091E0,1.4818745E0,4.0469262E-1,5.5066264E-1,7.487731E-1,2.752674E0,6.042857E-1,4.8537588E-1,2.1665047E-1,2.9671812E0,1.7538003E0,4.1916714E0,1.8677917E0,1.3309422E0,3.833773E-1,3.6516306E-1,2.6357412E-1,4.453314E-1,5.9123915E-1,5.821831E-1,5.157604E-1,1.468399E0,1.955226E0,3.169161E-1,4.5494604E-1,4.7366917E-1,2.8386176E-2,1.1739547E-1,9.076822E-2,2.209836E0,1.2095356E0,9.931716E-1,9.272053E-1,4.1312337E0,8.3402157E-1,7.7276134E-1,8.410754E-1,1.4578133E0,2.4434006E-1,3.2639596E-1,4.0981632E-1,4.467204E-1,3.306886E-1,3.0303365E-2,2.2384703E-2,4.771515E-1,5.3767645E-1,3.409257E-1,3.5988727E-1,3.7784177E-1,1.7837429E-1,2.609072E-1,2.869416E-1,0E0,0E0,0E0,0E0,0E0,0E0,0E0,0E0,0E0,0E0,0E0,0E0,0E0,0E0,0E0,0E0,0E0,0E0,0E0,0E0,0E0,0E0,0E0,0E0,0E0,0E0,0E0,0E0,0E0,0E0,0E0,0E0,0E0,0E0,0E0,0E0,0E0,0E0,0E0,0E0,0E0,0E0,0E0,0E0,0E0,0E0,0E0,0E0,0E0,0E0,0E0,0E0,0E0,0E0,0E0,0E0,0E0,0E0,0E0,0E0,0E0,0E0,0E0,0E0],"parents":[2147483647,0,0,1,1,2,2,3,3,4,4,5,5,6,6,7,7,8,8,9,9,10,10,11,11,12,12,13,13,14,14,15,15,16,16,17,17,18,18,19,19,20,20,21,21,22,22,23,23,24,24,25,25,26,26,27,27,28,28,29,29,30,30,31,31,32,32,33,33,34,34,35,35,36,36,37,37,38,38,39,39,40,40,41,41,42,42,43,43,44,44,45,45,46,46,47,47,48,48,49,49,50,50,51,51,52,52,53,53,54,54,55,55,56,56,57,57,58,58,59,59,60,60,61,61,62,62],"right_children":[2,4,6,8,10,12,14,16,18,20,22,24,26,28,30,32,34,36,38,40,42,44,46,48,50,52,54,56,58,60,62,64,66,68,70,72,74,76,78,80,82,84,86,88,90,92,94,96,98,100,102,104,106,108,110,112,114,116,118,120,122,124,126,-1,-1,-1,-1,-1,-1,-1,-1,-1,-1,-1,-1,-1,-1,-1,-1,-1,-1,-1,-1,-1,-1,-1,-1,-1,-1,-1,-1,-1,-1,-1,-1,-1,-1,-1,-1,-1,-1,-1,-1,-1,-1,-1,-1,-1,-1,-1,-1,-1,-1,-1,-1,-1,-1,-1,-1,-1,-1,-1,-1,-1,-1,-1,-1],"split_conditions":[8.088227E-1,9.474086E-3,1.6656713E-1,9.247491E-1,2.815823E-1,1.7781593E-1,6.4858896E-1,3.689529E-1,2.3970133E-1,8.9711785E-2,3.4050357E-1,2.8051054E-1,4.889785E-1,3.3241078E-1,5.829081E-2,3.4897402E-2,7.6156296E-2,6.156129E-1,3.1976953E-2,9.400294E-1,2.4444373E-2,5.609304E-1,2.766743E-2,1.656538E-1,1.9460189E-3,2.8873602E-1,8.895979E-3,2.6193336E-1,3.8191916E-3,1.8909754E-2,1.3509577E-2,3.1688273E-1,1.0728268E-1,1.7651223E-1,6.1771054E-2,2.2860375E-1,7.3956354E-3,1.0594279E-2,2.2773934E-3,2.6546088E-1,1.6171081E-1,7.6156296E-2,6.5011764E-1,5.286926E-1,3.5193178E-1,8.174819E-1,5.180137E-1,1.400987E-1,9.317946E-3,1.5709926E-3,6.156479E-1,2.744135E-1,5.1375222E-3,9.52231E-3,1.4073978E-2,1.0502429E-1,1.6860604E-2,5.7656385E-2,8.123636E-3,4.64846E-3,2.2184159E-1,9.878891E-3,2.9938962E-2,4.2435806E-3,1.0967042E-2,1.3626541E-3,7.268117E-3,1.5657423E-2,4.159084E-2,1.5730184E-2,8.719847E-3,-1.4250045E-2,-1.0719398E-3,-8.478584E-3,-7.086545E-2,-4.171212E-3,3.6625456E-2,-3.7252095E-3,5.169734E-2,-6.5855114E-3,2.639602E-3,-2.3599902E-2,-1.7068436E-3,1.602227E-2,3.6076768E-3,-1.8251953E-3,-1.7466253E-2,-1.2490381E-3,1.7738359E-2,2.8187486E-3,1.980874E-2,9.241127E-3,-2.4073836E-3,1.2513095E-3,6.3156225E-3,-2.241613E-2,9.189335E-5,-6.869438E-3,-1.5091146E-2,7.081285E-3,5.026028E-2,5.178754E-3,-2.3705235E-2,-1.0059439E-2,1.9318376E-2,2.4288133E-2,3.360876E-4,-2.2671325E-2,1.9985963E-2,3.9529964E-2,1.1646937E-1,-5.954825E-3,2.6752349E-2,6.913509E-4,1.0711338E-1,2.9770505E-2,-4.2279484E-3,-1.0793728E-2,3.3405805E-3,1.0366333E-1,-1.1012399E-2,-3.1172948E-2,3.4687594E-2,-2.348153E-2,6.599003E-2,1.2685455E-1,-2.5523447E-2],"split_indices":[6,3,14,4,6,7,14,0,0,2,4,5,3,14,13,0,6,6,15,11,5,3,1,4,18,7,11,8,3,17,3,4,13,2,1,14,1,11,19,3,4,6,7,19,6,4,4,18,11,18,5,4,15,2,0,10,3,7,12,1,7,18,0,0,0,0,0,0,0,0,0,0,0,0,0,0,0,0,0,0,0,0,0,0,0,0,0,0,0,0,0,0,0,0,0,0,0,0,0,0,0,0,0,0,0,0,0,0,0,0,0,0,0,0,0,0,0,0,0,0,0,0,0,0,0,0,0],"split_type":[0,0,0,0,0,0,0,0,0,0,0,0,0,0,0,0,0,0,0,0,0,0,0,0,0,0,0,0,0,0,0,0,0,0,0,0,0,0,0,0,0,0,0,0,0,0,0,0,0,0,0,0,0,0,0,0,0,0,0,0,0,0,0,0,0,0,0,0,0,0,0,0,0,0,0,0,0,0,0,0,0,0,0,0,0,0,0,0,0,0,0,0,0,0,0,0,0,0,0,0,0,0,0,0,0,0,0,0,0,0,0,0,0,0,0,0,0,0,0,0,0,0,0,0,0,0,0],"sum_hessian":[2.07645E5,1.97904E5,9.741E3,4.8812E4,1.49092E5,6.277E3,3.464E3,4.7482E4,1.33E3,3.2162E4,1.1693E5,5.316E3,9.61E2,3.271E3,1.93E2,4.3648E4,3.834E3,1.274E3,5.6E1,2.3873E4,8.289E3,9.4509E4,2.2421E4,5.008E3,3.08E2,9.52E2,9E0,2.039E3,1.232E3,1.74E2,1.9E1,1.1784E4,3.1864E4,1.73E2,3.661E3,1.261E3,1.3E1,3.7E1,1.9E1,2.2405E4,1.468E3,5.077E3,3.212E3,9.3121E4,1.388E3,7.828E3,1.4593E4,3.584E3,1.424E3,6.6E1,2.42E2,5.96E2,3.56E2,4E0,5E0,2.022E3,1.7E1,1.41E2,1.091E3,9E0,1.65E2,1.3E1,6E0,5.387E3,6.397E3,2.5579E4,6.285E3,8.3E1,9E1,1.289E3,2.372E3,9.27E2,3.34E2,1E0,1.2E1,3E1,7E0,3E0,1.6E1,1.9755E4,2.65E3,1.187E3,2.81E2,6.67E2,4.41E3,2.825E3,3.87E2,9.2079E4,1.042E3,3.47E2,1.041E3,7.277E3,5.51E2,1.0486E4,4.107E3,3.303E3,2.81E2,9.18E2,5.06E2,4.1E1,2.5E1,1.85E2,5.7E1,5.46E2,5E1,6.2E1,2.94E2,2E0,2E0,2E0,3E0,1.982E3,4E1,1.1E1,6E0,1.06E2,3.5E1,1.97E2,8.94E2,4E0,5E0,1.62E2,3E0,1E1,3E0,5E0,1E0],"tree_param":{"num_deleted":"0","num_feature":"20","num_nodes":"127","size_leaf_vector":"1"}},{"base_weights":[7.43121E-6,-7.389008E-3,5.3234953E-3,-1.1656776E-2,1.81027E-2,-3.2611971E-3,1.0057167E-2,-1.51749225E-2,1.5093231E-2,5.7275253E-3,2.7172323E-2,-5.650724E-3,2.6187414E-2,6.807363E-3,2.5320051E-2,-1.9878834E-2,9.798343E-3,4.095396E-2,1.0171741E-2,-3.8344115E-3,3.194408E-2,1.6499171E-2,5.7659008E-2,-7.979856E-3,2.3045888E-2,5.7058834E-2,1.9074995E-2,1.1683341E-2,1.7413327E-3,2.8630935E-2,-4.2105536E-3,-2.3636065E-2,4.9321554E-3,3.3505112E-2,4.367474E-3,4.666541E-2,-5.229307E-3,1.9451048E-2,3.4639419E-3,-1.6936582E-2,1.6709972E-2,1.3215446E-1,2.6995584E-2,2.7734702E-2,3.5350649E-3,9.20806E-2,4.3020625E-2,-3.5763495E-3,-2.4090227E-2,1.4089152E-2,5.5865206E-2,-3.311857E-2,6.250549E-2,1.7462762E-2,1.0894533E-1,1.3475586E-2,-3.0404814E-3,9.028481E-4,5.0254207E-2,4.059991E-2,2.005786E-2,-3.5028797E-2,1.5970467E-2,-7.89353E-3,2.8656577E-3,4.159046E-3,-2.5372E-3,6.3176844E-3,1.4645061E-2,-1.1557098E-3,5.6553534E-3,1.2033825E-2,3.494715E-2,6.8624606E-3,-2.9160986E-2,5.5881892E-3,3.8094666E-2,9.170898E-3,2.502671E-4,-7.0886356E-3,8.507261E-3,1.0162124E-2,-1.9095746E-4,4.5080997E-2,-1.2600183E-2,5.843189E-3,1.9461546E-2,1.6516644E-3,1.0901477E-2,1.3942677E-2,-2.380768E-5,3.1582348E-2,1.1686233E-2,1.6786175E-2,1.8428076E-3,-3.793373E-3,1.2004217E-3,-1.3520852E-2,-3.8714258E-3,2.5895087E-3,1.3836121E-2,2.0632718E-2,-3.8337384E-3,-2.8858442E-2,4.025745E-2,6.838669E-2,1.7468119E-2,6.129184E-3,-4.66745E-3,4.849526E-2,5.3935116E-3,4.4938037E-3,-1.390012E-3,7.339613E-3,-2.5621878E-3,-1.1433035E-3,3.1774442E-3,1.8644817E-2,1.8811538E-3,1.3455947E-2,-2.5780955E-3,6.53665E-3,-7.114413E-3,2.23083E-2,-1.2527345E-2,-2.0979788E-2,6.637586E-3],"categories":[],"categories_nodes":[],"categories_segments":[],"categories_sizes":[],"default_left":[0,0,0,0,0,0,0,0,0,0,0,0,0,0,0,0,0,0,0,0,0,0,0,0,0,0,0,0,0,0,0,0,0,0,0,0,0,0,0,0,0,0,0,0,0,0,0,0,0,0,0,0,0,0,0,0,0,0,0,0,0,0,0,0,0,0,0,0,0,0,0,0,0,0,0,0,0,0,0,0,0,0,0,0,0,0,0,0,0,0,0,0,0,0,0,0,0,0,0,0,0,0,0,0,0,0,0,0,0,0,0,0,0,0,0,0,0,0,0,0,0,0,0,0,0,0,0],"id":4,"left_children":[1,3,5,7,9,11,13,15,17,19,21,23,25,27,29,31,33,35,37,39,41,43,45,47,49,51,53,55,57,59,61,63,65,67,69,71,73,75,77,79,81,83,85,87,89,91,93,95,97,99,101,103,105,107,109,111,113,115,117,119,121,123,125,-1,-1,-1,-1,-1,-1,-1,-1,-1,-1,-1,-1,-1,-1,-1,-1,-1,-1,-1,-1,-1,-1,-1,-1,-1,-1,-1,-1,-1,-1,-1,-1,-1,-1,-1,-1,-1,-1,-1,-1,-1,-1,-1,-1,-1,-1,-1,-1,-1,-1,-1,-1,-1,-1,-1,-1,-1,-1,-1,-1,-1,-1,-1,-1],"loss_changes":[8.164669E0,9.447007E0,4.9095645E0,7.0002584E0,1.3975468E0,3.0218308E0,3.8624868E0,7.722336E0,1.0999883E0,1.3207102E0,2.337294E0,2.65493E0,7.065873E-1,1.585962E0,1.3366699E0,5.156801E0,1.3414117E0,3.64779E-1,4.5213336E-1,1.0395715E0,6.946466E-1,7.753886E-1,9.347601E-1,2.6061854E0,8.757837E-1,2.9824305E-1,3.7785906E-1,8.633733E-1,1.2808827E0,1.260478E0,8.582196E-1,4.266466E0,8.7022454E-1,3.6906385E-1,1.0095291E0,5.5810165E-1,3.9770597E-1,2.6762295E-1,3.0063522E-1,7.154208E-1,4.4780964E-1,2.1453547E-1,3.8117504E-1,5.45244E-1,3.838263E-1,3.8492346E-1,6.239877E-1,1.9827363E0,1.8499722E0,4.0935472E-1,5.671818E-1,3.8227367E-1,3.8950324E-1,2.5276875E-1,2.1763897E-1,7.943044E-1,5.374262E-1,1.4138272E0,2.795192E-1,1.0735378E0,5.433266E-1,4.0500814E-1,4.424979E-1,0E0,0E0,0E0,0E0,0E0,0E0,0E0,0E0,0E0,0E0,0E0,0E0,0E0,0E0,0E0,0E0,0E0,0E0,0E0,0E0,0E0,0E0,0E0,0E0,0E0,0E0,0E0,0E0,0E0,0E0,0E0,0E0,0E0,0E0,0E0,0E0,0E0,0E0,0E0,0E0,0E0,0E0,0E0,0E0,0E0,0E0,0E0,0E0,0E0,0E0,0E0,0E0,0E0,0E0,0E0,0E0,0E0,0E0,0E0,0E0,0E0,0E0,0E0,0E0],"parents":[2147483647,0,0,1,1,2,2,3,3,4,4,5,5,6,6,7,7,8,8,9,9,10,10,11,11,12,12,13,13,14,14,15,15,16,16,17,17,18,18,19,19,20,20,21,21,22,22,23,23,24,24,25,25,26,26,27,27,28,28,29,29,30,30,31,31,32,32,33,33,34,34,35,35,36,36,37,37,38,38,39,39,40,40,41,41,42,42,43,43,44,44,45,45,46,46,47,47,48,48,49,49,50,50,51,51,52,52,53,53,54,54,55,55,56,56,57,57,58,58,59,59,60,60,61,61,62,62],"right_children":[2,4,6,8,10,12,14,16,18,20,22,24,26,28,30,32,34,36,38,40,42,44,46,48,50,52,54,56,58,60,62,64,66,68,70,72,74,76,78,80,82,84,86,88,90,92,94,96,98,100,102,104,106,108,110,112,114,116,118,120,122,124,126,-1,-1,-1,-1,-1,-1,-1,-1,-1,-1,-1,-1,-1,-1,-1,-1,-1,-1,-1,-1,-1,-1,-1,-1,-1,-1,-1,-1,-1,-1,-1,-1,-1,-1,-1,-1,-1,-1,-1,-1,-1,-1,-1,-1,-1,-1,-1,-1,-1,-1,-1,-1,-1,-1,-1,-1,-1,-1,-1,-1,-1,-1,-1,-1],"split_conditions":[2.0101935E-1,1.2872666E-1,3.38585E-1,2.0633815E-1,3.5193178E-1,2.7462733E-1,4.5204967E-1,1.5107049E-1,7.29639E-2,1.1564751E-1,4.5784137E-1,2.694372E-1,9.990743E-2,4.8537485E-2,8.174819E-1,2.0702046E-1,5.729467E-2,6.743142E-1,8.546767E-3,3.1421888E-1,5.756104E-2,1.2579489E-1,1.9364302E-1,7.0758927E-1,4.6442825E-1,2.9397018E-2,4.4016084E-1,5.212012E-2,3.0758992E-1,2.5793664E-2,9.375945E-3,2.49214E-1,7.4575585E-1,3.9093986E-1,3.8933232E-1,5.206362E-1,6.1771054E-2,6.156566E-1,4.759982E-3,2.6193336E-1,5.668158E-3,3.998474E-2,4.7557238E-1,5.1606115E-2,1.092713E-3,9.403725E-2,1.5839443E-2,3.144613E-1,1.5268224E-1,2.5904107E-1,1.2190507E-1,2.7240518E-2,2.6440835E-2,8.0582374E-1,1.853548E-2,7.8470016E-1,2.2457212E-3,1.0038636E-1,2.0633815E-1,5.2754843E-1,5.9208024E-2,1.0391471E-3,9.750155E-3,-7.89353E-3,2.8656577E-3,4.159046E-3,-2.5372E-3,6.3176844E-3,1.4645061E-2,-1.1557098E-3,5.6553534E-3,1.2033825E-2,3.494715E-2,6.8624606E-3,-2.9160986E-2,5.5881892E-3,3.8094666E-2,9.170898E-3,2.502671E-4,-7.0886356E-3,8.507261E-3,1.0162124E-2,-1.9095746E-4,4.5080997E-2,-1.2600183E-2,5.843189E-3,1.9461546E-2,1.6516644E-3,1.0901477E-2,1.3942677E-2,-2.380768E-5,3.1582348E-2,1.1686233E-2,1.6786175E-2,1.8428076E-3,-3.793373E-3,1.2004217E-3,-1.3520852E-2,-3.8714258E-3,2.5895087E-3,1.3836121E-2,2.0632718E-2,-3.8337384E-3,-2.8858442E-2,4.025745E-2,6.838669E-2,1.7468119E-2,6.129184E-3,-4.66745E-3,4.849526E-2,5.3935116E-3,4.4938037E-3,-1.390012E-3,7.339613E-3,-2.5621878E-3,-1.1433035E-3,3.1774442E-3,1.8644817E-2,1.8811538E-3,1.3455947E-2,-2.5780955E-3,6.53665E-3,-7.114413E-3,2.23083E-2,-1.2527345E-2,-2.0979788E-2,6.637586E-3],"split_indices":[4,10,6,0,6,1,4,9,4,15,10,11,6,0,4,14,4,5,11,17,6,4,17,4,4,2,16,5,19,1,12,5,6,6,9,5,1,2,12,8,12,14,0,13,16,0,3,4,6,12,14,13,0,1,11,6,18,17,0,14,11,18,17,0,0,0,0,0,0,0,0,0,0,0,0,0,0,0,0,0,0,0,0,0,0,0,0,0,0,0,0,0,0,0,0,0,0,0,0,0,0,0,0,0,0,0,0,0,0,0,0,0,0,0,0,0,0,0,0,0,0,0,0,0,0,0,0],"split_type":[0,0,0,0,0,0,0,0,0,0,0,0,0,0,0,0,0,0,0,0,0,0,0,0,0,0,0,0,0,0,0,0,0,0,0,0,0,0,0,0,0,0,0,0,0,0,0,0,0,0,0,0,0,0,0,0,0,0,0,0,0,0,0,0,0,0,0,0,0,0,0,0,0,0,0,0,0,0,0,0,0,0,0,0,0,0,0,0,0,0,0,0,0,0,0,0,0,0,0,0,0,0,0,0,0,0,0,0,0,0,0,0,0,0,0,0,0,0,0,0,0,0,0,0,0,0,0],"sum_hessian":[2.07645E5,8.6832E4,1.20813E5,7.438E4,1.2452E4,4.294E4,7.7873E4,6.5735E4,8.645E3,5.267E3,7.185E3,3.9718E4,3.222E3,6.4204E4,1.3669E4,5.5316E4,1.0419E4,1.381E3,7.264E3,3.86E3,1.407E3,5.323E3,1.862E3,3.6737E4,2.981E3,6.02E2,2.62E3,3.2715E4,3.1489E4,1.2291E4,1.378E3,4.8041E4,7.275E3,1.941E3,8.478E3,1.229E3,1.52E2,3.047E3,4.217E3,2.357E3,1.503E3,6.5E1,1.342E3,2.851E3,2.472E3,5.54E2,1.308E3,2.8852E4,7.885E3,2.343E3,6.38E2,3.4E1,5.68E2,2.575E3,4.5E1,2.9165E4,3.55E3,3.0955E4,5.34E2,5.128E3,7.163E3,5.45E2,8.33E2,4.4457E4,3.584E3,4.364E3,2.911E3,1.072E3,8.69E2,5.409E3,3.069E3,1.125E3,1.04E2,1.17E2,3.5E1,3.025E3,2.2E1,3.72E2,3.845E3,2.054E3,3.03E2,7.55E2,7.48E2,5.9E1,6E0,1.121E3,2.21E2,7.96E2,2.055E3,1.91E2,2.281E3,4.43E2,1.11E2,9.68E2,3.4E2,1.3134E4,1.5718E4,2.741E3,5.144E3,2.003E3,3.4E2,5.37E2,1.01E2,2.5E1,9E0,1.3E1,5.55E2,2.363E3,2.12E2,2.8E1,1.7E1,2.6929E4,2.236E3,5.91E2,2.959E3,2.0824E4,1.0131E4,4.2E2,1.14E2,4.72E3,4.08E2,6.891E3,2.72E2,3.1E1,5.14E2,5.5E1,7.78E2],"tree_param":{"num_deleted":"0","num_feature":"20","num_nodes":"127","size_leaf_vector":"1"}},{"base_weights":[7.4147674E-6,2.006698E-3,-1.39837945E-2,1.27677275E-2,-9.221282E-4,-2.3085903E-2,-2.5727504E-3,5.031107E-2,1.1750587E-2,9.401152E-3,-3.0464095E-3,-2.4466097E-2,8.0022044E-2,-6.412954E-3,9.843255E-3,5.9362266E-2,5.078308E-3,1.1116219E-2,6.261234E-2,1.1800353E-2,-2.096578E-2,-3.9528264E-3,2.4390256E-2,-2.7591437E-2,1.5806742E-2,1.15245014E-1,-7.3520135E-4,-1.31095005E-2,7.821862E-3,1.5349253E-2,-1.4359017E-2,7.934601E-3,6.7677855E-2,2.6151303E-2,-6.745656E-2,8.929955E-3,2.4757152E-2,3.6768433E-2,1.3282037E-1,8.464414E-3,3.4215298E-2,-2.6389772E-2,8.649647E-2,-1.4712793E-2,-1.3423208E-3,5.3807296E-2,1.9344991E-2,-3.7022E-2,-1.1158479E-2,3.1115916E-2,-3.3981755E-2,1.8230748E-1,2.5383085E-2,7.9790436E-2,-7.1172155E-2,-1.2128E-2,-8.029253E-2,1.3330343E-2,-3.7405647E-2,-5.8386177E-2,1.746156E-2,6.744137E-2,-1.9851113E-2,-1.8848188E-2,2.0034788E-2,1.4524188E-2,2.7629964E-2,5.0543947E-3,4.1948315E-2,-2.6872853E-2,4.4545233E-2,1.7889354E-3,6.7099524E-3,9.034991E-3,1.8398938E-3,9.053855E-3,3.9370637E-2,5.1145855E-2,1.932816E-2,2.1687571E-3,1.9430988E-2,8.041073E-3,1.9441016E-2,-8.95016E-3,3.6317457E-2,2.2250556E-3,3.4574725E-2,-5.3376146E-3,3.7109412E-3,-6.350157E-4,8.681463E-3,1.339928E-2,4.8426554E-2,1.3799336E-2,3.9738477E-3,-1.2246014E-2,8.731528E-3,-3.977353E-3,1.6717723E-2,1.9614648E-2,5.202557E-3,-1.6583815E-2,1.2902818E-2,3.369747E-2,8.576098E-2,3.2139648E-2,-3.397733E-2,-5.0986633E-3,6.3076414E-2,1.1723622E-2,-4.1782994E-2,-3.686704E-3,9.253928E-2,4.1130424E-2,-3.6265388E-2,-2.1810347E-2,4.7808504E-3,-7.519979E-3,-5.440353E-2,-5.8891713E-3,-4.351892E-2,3.0484137E-3,1.2215209E-2,1.3569699E-3,6.831887E-2,-7.490047E-3,1.0435411E-2],"categories":[],"categories_nodes":[],"categories_segments":[],"categories_sizes":[],"default_left":[0,0,0,0,0,0,0,0,0,0,0,0,0,0,0,0,0,0,0,0,0,0,0,0,0,0,0,0,0,0,0,0,0,0,0,0,0,0,0,0,0,0,0,0,0,0,0,0,0,0,0,0,0,0,0,0,0,0,0,0,0,0,0,0,0,0,0,0,0,0,0,0,0,0,0,0,0,0,0,0,0,0,0,0,0,0,0,0,0,0,0,0,0,0,0,0,0,0,0,0,0,0,0,0,0,0,0,0,0,0,0,0,0,0,0,0,0,0,0,0,0,0,0,0,0,0,0],"id":5,"left_children":[1,3,5,7,9,11,13,15,17,19,21,23,25,27,29,31,33,35,37,39,41,43,45,47,49,51,53,55,57,59,61,63,65,67,69,71,73,75,77,79,81,83,85,87,89,91,93,95,97,99,101,103,105,107,109,111,113,115,117,119,121,123,125,-1,-1,-1,-1,-1,-1,-1,-1,-1,-1,-1,-1,-1,-1,-1,-1,-1,-1,-1,-1,-1,-1,-1,-1,-1,-1,-1,-1,-1,-1,-1,-1,-1,-1,-1,-1,-1,-1,-1,-1,-1,-1,-1,-1,-1,-1,-1,-1,-1,-1,-1,-1,-1,-1,-1,-1,-1,-1,-1,-1,-1,-1,-1,-1],"loss_changes":[5.8083835E0,5.7262115E0,2.6964726E0,1.4837317E0,3.1319191E0,2.0571847E0,5.493843E-1,4.1934443E-1,1.2204089E0,1.7759764E0,2.9456873E0,1.7942829E0,5.4338634E-1,8.389547E-1,3.629477E-1,3.6467743E-1,2.646707E-1,1.1145811E0,8.406501E-1,1.688801E0,1.0427136E0,3.2205753E0,5.611615E-1,2.0492458E0,7.83858E-1,7.968787E-1,3.403257E-1,3.9367795E-1,7.020625E-1,3.4647733E-1,2.2821283E-1,5.0389946E-1,3.4133172E-1,1.3935837E-1,1.9958505E-1,1.2842467E0,5.151651E-1,2.0891225E-1,3.1102657E-1,1.3671613E0,6.6161776E-1,8.6691284E-1,1.946873E-1,1.8670826E0,2.1637645E0,5.378839E-1,5.252429E-1,2.1116333E0,6.780974E-1,3.6984664E-1,3.991919E-1,5.187049E-1,6.6949165E-1,3.5713252E-1,2.457173E-1,3.0834407E-1,7.754784E-1,5.6408215E-1,5.3893375E-1,2.0542365E-1,3.657835E-1,3.2169107E-1,1.3335186E-1,0E0,0E0,0E0,0E0,0E0,0E0,0E0,0E0,0E0,0E0,0E0,0E0,0E0,0E0,0E0,0E0,0E0,0E0,0E0,0E0,0E0,0E0,0E0,0E0,0E0,0E0,0E0,0E0,0E0,0E0,0E0,0E0,0E0,0E0,0E0,0E0,0E0,0E0,0E0,0E0,0E0,0E0,0E0,0E0,0E0,0E0,0E0,0E0,0E0,0E0,0E0,0E0,0E0,0E0,0E0,0E0,0E0,0E0,0E0,0E0,0E0,0E0,0E0,0E0],"parents":[2147483647,0,0,1,1,2,2,3,3,4,4,5,5,6,6,7,7,8,8,9,9,10,10,11,11,12,12,13,13,14,14,15,15,16,16,17,17,18,18,19,19,20,20,21,21,22,22,23,23,24,24,25,25,26,26,27,27,28,28,29,29,30,30,31,31,32,32,33,33,34,34,35,35,36,36,37,37,38,38,39,39,40,40,41,41,42,42,43,43,44,44,45,45,46,46,47,47,48,48,49,49,50,50,51,51,52,52,53,53,54,54,55,55,56,56,57,57,58,58,59,59,60,60,61,61,62,62],"right_children":[2,4,6,8,10,12,14,16,18,20,22,24,26,28,30,32,34,36,38,40,42,44,46,48,50,52,54,56,58,60,62,64,66,68,70,72,74,76,78,80,82,84,86,88,90,92,94,96,98,100,102,104,106,108,110,112,114,116,118,120,122,124,126,-1,-1,-1,-1,-1,-1,-1,-1,-1,-1,-1,-1,-1,-1,-1,-1,-1,-1,-1,-1,-1,-1,-1,-1,-1,-1,-1,-1,-1,-1,-1,-1,-1,-1,-1,-1,-1,-1,-1,-1,-1,-1,-1,-1,-1,-1,-1,-1,-1,-1,-1,-1,-1,-1,-1,-1,-1,-1,-1,-1,-1,-1,-1,-1],"split_conditions":[7.1196544E-1,8.120049E-3,1.6824447E-1,4.599452E-2,1.619171E-2,4.299517E-1,1.0911225E-1,1.0935653E-1,5.286926E-1,8.167687E-1,2.8613725E-1,2.49214E-1,1.0681996E-1,2.668671E-1,3.605783E-2,1.1905214E-1,5.241307E-1,2.9765388E-1,4.9955088E-1,2.694372E-1,3.4825155E-1,2.619218E-1,1.2591738E-1,1.2190507E-1,6.156479E-1,2.1174792E-2,2.200179E-2,7.285652E-1,6.4858896E-1,8.805844E-4,1.3076301E-3,1.3399185E-1,5.293484E-1,9.4168943E-1,2.85646E-1,1.6280419E-1,5.69221E-1,4.7557238E-1,3.40878E-2,4.8485723E-1,2.0259662E-1,4.6442825E-1,1.1827345E-2,3.051473E-1,4.1654044E-1,5.4330215E-2,3.5155866E-2,1.1135768E-1,3.411567E-1,3.9994936E-3,6.097068E-3,2.910043E-2,1.07937776E-1,1.0945837E-2,6.2929313E-3,7.929874E-1,3.4765932E-3,7.390278E-3,5.814356E-1,3.2944256E-1,3.056673E-1,3.1836037E-2,1.9781927E-2,-1.8848188E-2,2.0034788E-2,1.4524188E-2,2.7629964E-2,5.0543947E-3,4.1948315E-2,-2.6872853E-2,4.4545233E-2,1.7889354E-3,6.7099524E-3,9.034991E-3,1.8398938E-3,9.053855E-3,3.9370637E-2,5.1145855E-2,1.932816E-2,2.1687571E-3,1.9430988E-2,8.041073E-3,1.9441016E-2,-8.95016E-3,3.6317457E-2,2.2250556E-3,3.4574725E-2,-5.3376146E-3,3.7109412E-3,-6.350157E-4,8.681463E-3,1.339928E-2,4.8426554E-2,1.3799336E-2,3.9738477E-3,-1.2246014E-2,8.731528E-3,-3.977353E-3,1.6717723E-2,1.9614648E-2,5.202557E-3,-1.6583815E-2,1.2902818E-2,3.369747E-2,8.576098E-2,3.2139648E-2,-3.397733E-2,-5.0986633E-3,6.3076414E-2,1.1723622E-2,-4.1782994E-2,-3.686704E-3,9.253928E-2,4.1130424E-2,-3.6265388E-2,-2.1810347E-2,4.7808504E-3,-7.519979E-3,-5.440353E-2,-5.8891713E-3,-4.351892E-2,3.0484137E-3,1.2215209E-2,1.3569699E-3,6.831887E-2,-7.490047E-3,1.0435411E-2],"split_indices":[6,11,4,4,10,3,7,1,19,11,8,5,14,14,13,17,6,5,6,11,6,6,6,14,5,2,13,4,14,19,19,9,6,15,13,14,6,0,10,7,12,4,2,15,10,3,0,8,17,11,18,5,9,12,2,10,11,0,4,4,4,5,12,0,0,0,0,0,0,0,0,0,0,0,0,0,0,0,0,0,0,0,0,0,0,0,0,0,0,0,0,0,0,0,0,0,0,0,0,0,0,0,0,0,0,0,0,0,0,0,0,0,0,0,0,0,0,0,0,0,0,0,0,0,0,0,0],"split_type":[0,0,0,0,0,0,0,0,0,0,0,0,0,0,0,0,0,0,0,0,0,0,0,0,0,0,0,0,0,0,0,0,0,0,0,0,0,0,0,0,0,0,0,0,0,0,0,0,0,0,0,0,0,0,0,0,0,0,0,0,0,0,0,0,0,0,0,0,0,0,0,0,0,0,0,0,0,0,0,0,0,0,0,0,0,0,0,0,0,0,0,0,0,0,0,0,0,0,0,0,0,0,0,0,0,0,0,0,0,0,0,0,0,0,0,0,0,0,0,0,0,0,0,0,0,0,0],"sum_hessian":[2.07645E5,1.81684E5,2.5961E4,3.8869E4,1.42815E5,1.4441E4,1.152E4,1.024E3,3.7845E4,2.4372E4,1.18443E5,1.4251E4,1.9E2,8.799E3,2.721E3,8.53E2,1.71E2,3.738E4,4.65E2,2.2588E4,1.784E3,1.14656E5,3.787E3,1.3225E4,1.026E3,1.32E2,5.8E1,5.984E3,2.815E3,2.217E3,5.04E2,1.19E2,7.34E2,1.33E2,3.8E1,3.2218E4,5.162E3,3.41E2,1.24E2,1.9663E4,2.925E3,1.699E3,8.5E1,2.2385E4,9.2271E4,5.53E2,3.234E3,8.402E3,4.823E3,7.85E2,2.41E2,7.5E1,5.7E1,2.7E1,3.1E1,5.899E3,8.5E1,2.51E3,3.05E2,6.1E1,2.156E3,3.1E1,4.73E2,5.4E1,6.5E1,4.12E2,3.22E2,1.24E2,9E0,3.5E1,3E0,2.6392E4,5.826E3,4.008E3,1.154E3,3.2E2,2.1E1,7.9E1,4.5E1,1.9242E4,4.21E2,2.356E3,5.69E2,1.661E3,3.8E1,2.3E1,6.2E1,2.01E4,2.285E3,8.9971E4,2.3E3,5.11E2,4.2E1,6.01E2,2.633E3,7.946E3,4.56E2,4.677E3,1.46E2,2.24E2,5.61E2,1.89E2,5.2E1,4.6E1,2.9E1,3.6E1,2.1E1,1.6E1,1.1E1,1.2E1,1.9E1,5.897E3,2E0,1.3E1,7.2E1,7.3E1,2.437E3,2.82E2,2.3E1,4.3E1,1.8E1,1.642E3,5.14E2,2.3E1,8E0,4.33E2,4E1],"tree_param":{"num_deleted":"0","num_feature":"20","num_nodes":"127","size_leaf_vector":"1"}},{"base_weights":[8.444973E-6,-8.341992E-4,2.3144495E-2,-6.654919E-3,2.649054E-3,3.9690286E-2,1.6785992E-2,-9.253582E-3,1.2463193E-2,8.327462E-3,-1.4075647E-3,3.4573413E-2,8.2606405E-2,1.8761234E-2,-1.6370773E-2,-1.2979936E-2,1.0311622E-2,2.079756E-2,3.6622114E-3,9.829904E-3,-2.0684833E-2,-2.4438957E-3,1.9335844E-2,1.1876234E-1,3.226296E-2,5.5884402E-2,1.4080001E-1,2.2639237E-2,7.3055044E-4,1.140236E-1,-2.4201142E-2,-1.5086951E-2,1.6083477E-2,2.3736846E-2,1.712125E-3,8.508544E-3,3.2031737E-2,1.3183974E-2,-9.106874E-3,4.142174E-3,1.5088094E-2,-3.1450205E-2,2.9418375E-3,-3.1892469E-3,2.4332346E-2,1.3668759E-1,1.7271386E-2,-5.199722E-2,1.650674E-1,4.7185626E-2,2.0494565E-2,1.18735775E-1,2.8415866E-2,-5.056043E-2,1.6760415E-1,1.8026588E-2,4.4462703E-2,1.0029542E-2,-5.03509E-2,2.3393916E-1,2.7347934E-2,-3.9647818E-2,1.8754369E-2,-5.1475316E-3,4.8358003E-3,1.2806526E-3,9.535425E-3,1.2849973E-2,5.875153E-3,1.2384E-2,-1.150828E-4,5.106184E-3,-8.173847E-3,1.0966389E-2,-3.7345258E-3,1.019256E-2,2.2936799E-3,-4.4590775E-3,6.4431867E-3,4.0047807E-3,3.886645E-4,9.137212E-3,3.6783966E-3,-1.0822905E-2,1.2197114E-2,2.031991E-3,-3.6654696E-2,-1.6529523E-3,1.5640525E-3,2.9241841E-2,6.3242363E-3,9.880157E-4,5.4323744E-2,2.0603085E-2,4.710702E-3,-4.0460676E-2,6.418508E-2,7.906056E-2,1.5818799E-2,1.9614741E-2,4.341268E-3,9.393824E-3,-4.5278315E-3,2.7860436E-3,4.4922475E-2,2.2635697E-3,3.502164E-2,1.7074052E-2,-2.6819332E-2,6.605653E-2,2.0747527E-2,2.0842168E-3,9.075631E-3,1.768515E-2,1.3449849E-3,2.0976562E-2,3.2702598E-4,3.3207957E-2,-2.2286218E-2,9.765959E-3,7.8623384E-2,5.1348854E-2,-1.4393403E-2,-1.6302506E-2,1.1014894E-2,6.4090416E-2,5.3472613E-4],"categories":[],"categories_nodes":[],"categories_segments":[],"categories_sizes":[],"default_left":[0,0,0,0,0,0,0,0,0,0,0,0,0,0,0,0,0,0,0,0,0,0,0,0,0,0,0,0,0,0,0,0,0,0,0,0,0,0,0,0,0,0,0,0,0,0,0,0,0,0,0,0,0,0,0,0,0,0,0,0,0,0,0,0,0,0,0,0,0,0,0,0,0,0,0,0,0,0,0,0,0,0,0,0,0,0,0,0,0,0,0,0,0,0,0,0,0,0,0,0,0,0,0,0,0,0,0,0,0,0,0,0,0,0,0,0,0,0,0,0,0,0,0,0,0,0,0],"id":6,"left_children":[1,3,5,7,9,11,13,15,17,19,21,23,25,27,29,31,33,35,37,39,41,43,45,47,49,51,53,55,57,59,61,63,65,67,69,71,73,75,77,79,81,83,85,87,89,91,93,95,97,99,101,103,105,107,109,111,113,115,117,119,121,123,125,-1,-1,-1,-1,-1,-1,-1,-1,-1,-1,-1,-1,-1,-1,-1,-1,-1,-1,-1,-1,-1,-1,-1,-1,-1,-1,-1,-1,-1,-1,-1,-1,-1,-1,-1,-1,-1,-1,-1,-1,-1,-1,-1,-1,-1,-1,-1,-1,-1,-1,-1,-1,-1,-1,-1,-1,-1,-1,-1,-1,-1,-1,-1,-1],"loss_changes":[4.048173E0,4.0621214E0,7.6702523E-1,3.726628E0,2.8873043E0,4.418261E-1,3.4564948E-1,4.814394E0,6.5831876E-1,2.2769163E0,1.57176E0,3.4843445E-1,3.2646728E-1,3.479904E-1,3.060072E-1,3.3969994E0,1.2196904E0,6.3617015E-1,5.310782E-1,1.4851274E0,6.542804E-1,1.3898325E0,8.404881E-1,3.881207E-1,3.088194E-1,2.538648E-1,3.5213387E-1,4.1151834E-1,4.1946027E-1,1.7029616E-1,1.8719265E-1,3.3436337E0,6.9550747E-1,3.263042E-1,5.341277E-1,6.7093897E-1,4.8489428E-1,2.8784454E-1,3.288554E-1,6.252545E-1,1.1206927E0,5.9090006E-1,3.8723114E-1,1.3211119E0,4.464749E-1,3.546983E-1,2.7477098E-1,2.7128994E-1,4.064479E-1,4.6160567E-1,3.8084292E-1,1.513192E-1,1.9267151E-1,4.2653948E-2,2.9019725E-1,4.5801353E-1,4.1329432E-1,3.9987117E-1,5.324801E-1,3.1135857E-2,1.2737498E-1,2.3426664E-1,2.4768163E-1,0E0,0E0,0E0,0E0,0E0,0E0,0E0,0E0,0E0,0E0,0E0,0E0,0E0,0E0,0E0,0E0,0E0,0E0,0E0,0E0,0E0,0E0,0E0,0E0,0E0,0E0,0E0,0E0,0E0,0E0,0E0,0E0,0E0,0E0,0E0,0E0,0E0,0E0,0E0,0E0,0E0,0E0,0E0,0E0,0E0,0E0,0E0,0E0,0E0,0E0,0E0,0E0,0E0,0E0,0E0,0E0,0E0,0E0,0E0,0E0,0E0,0E0,0E0,0E0],"parents":[2147483647,0,0,1,1,2,2,3,3,4,4,5,5,6,6,7,7,8,8,9,9,10,10,11,11,12,12,13,13,14,14,15,15,16,16,17,17,18,18,19,19,20,20,21,21,22,22,23,23,24,24,25,25,26,26,27,27,28,28,29,29,30,30,31,31,32,32,33,33,34,34,35,35,36,36,37,37,38,38,39,39,40,40,41,41,42,42,43,43,44,44,45,45,46,46,47,47,48,48,49,49,50,50,51,51,52,52,53,53,54,54,55,55,56,56,57,57,58,58,59,59,60,60,61,61,62,62],"right_children":[2,4,6,8,10,12,14,16,18,20,22,24,26,28,30,32,34,36,38,40,42,44,46,48,50,52,54,56,58,60,62,64,66,68,70,72,74,76,78,80,82,84,86,88,90,92,94,96,98,100,102,104,106,108,110,112,114,116,118,120,122,124,126,-1,-1,-1,-1,-1,-1,-1,-1,-1,-1,-1,-1,-1,-1,-1,-1,-1,-1,-1,-1,-1,-1,-1,-1,-1,-1,-1,-1,-1,-1,-1,-1,-1,-1,-1,-1,-1,-1,-1,-1,-1,-1,-1,-1,-1,-1,-1,-1,-1,-1,-1,-1,-1,-1,-1,-1,-1,-1,-1,-1,-1,-1,-1,-1],"split_conditions":[4.4610563E-1,1.8788125E-1,3.244138E-2,1.9742878E-1,3.2891E-2,3.7939572E-1,7.085769E-1,1.0728268E-1,9.9256724E-2,8.898733E-1,3.051473E-1,9.948698E-3,8.356229E-3,5.525979E-1,3.8767182E-3,1.5675648E-1,3.423436E-3,3.2622582E-1,2.0268695E-2,3.056673E-1,1.4813755E-1,3.011081E-1,3.3210807E-2,4.1154134E-3,1.3798216E-1,1.6106244E-2,1.4415535E-2,3.8704783E-1,6.156479E-1,5.995111E-1,6.736944E-3,1.9712825E-1,3.927773E-1,3.3318251E-3,3.4870286E-2,6.497706E-1,9.962837E-2,2.2862097E-2,5.609304E-1,2.224149E-2,7.7008232E-3,1.5433033E-1,6.1260265E-1,1.0911225E-1,3.2826584E-2,8.063573E-2,1.7422948E-2,2.9649815E-1,2.3974447E-2,3.411567E-1,1.4996164E-2,2.3900423E-2,2.2245696E-1,6.099643E-3,1.9561143E-1,3.3556625E-1,7.3827E-1,1.04020685E-2,3.7960622E-2,4.7557238E-1,4.3212228E-2,2.7772772E-1,6.474043E-2,-5.1475316E-3,4.8358003E-3,1.2806526E-3,9.535425E-3,1.2849973E-2,5.875153E-3,1.2384E-2,-1.150828E-4,5.106184E-3,-8.173847E-3,1.0966389E-2,-3.7345258E-3,1.019256E-2,2.2936799E-3,-4.4590775E-3,6.4431867E-3,4.0047807E-3,3.886645E-4,9.137212E-3,3.6783966E-3,-1.0822905E-2,1.2197114E-2,2.031991E-3,-3.6654696E-2,-1.6529523E-3,1.5640525E-3,2.9241841E-2,6.3242363E-3,9.880157E-4,5.4323744E-2,2.0603085E-2,4.710702E-3,-4.0460676E-2,6.418508E-2,7.906056E-2,1.5818799E-2,1.9614741E-2,4.341268E-3,9.393824E-3,-4.5278315E-3,2.7860436E-3,4.4922475E-2,2.2635697E-3,3.502164E-2,1.7074052E-2,-2.6819332E-2,6.605653E-2,2.0747527E-2,2.0842168E-3,9.075631E-3,1.768515E-2,1.3449849E-3,2.0976562E-2,3.2702598E-4,3.3207957E-2,-2.2286218E-2,9.765959E-3,7.8623384E-2,5.1348854E-2,-1.4393403E-2,-1.6302506E-2,1.1014894E-2,6.4090416E-2,5.3472613E-4],"split_indices":[0,4,14,3,1,10,15,13,4,4,15,13,12,6,11,15,18,6,10,4,14,16,6,11,4,14,13,5,5,0,19,7,6,11,4,3,0,1,3,5,15,7,6,7,0,8,7,1,9,17,18,5,1,5,6,6,5,8,14,0,8,4,1,0,0,0,0,0,0,0,0,0,0,0,0,0,0,0,0,0,0,0,0,0,0,0,0,0,0,0,0,0,0,0,0,0,0,0,0,0,0,0,0,0,0,0,0,0,0,0,0,0,0,0,0,0,0,0,0,0,0,0,0,0,0,0,0],"split_type":[0,0,0,0,0,0,0,0,0,0,0,0,0,0,0,0,0,0,0,0,0,0,0,0,0,0,0,0,0,0,0,0,0,0,0,0,0,0,0,0,0,0,0,0,0,0,0,0,0,0,0,0,0,0,0,0,0,0,0,0,0,0,0,0,0,0,0,0,0,0,0,0,0,0,0,0,0,0,0,0,0,0,0,0,0,0,0,0,0,0,0,0,0,0,0,0,0,0,0,0,0,0,0,0,0,0,0,0,0,0,0,0,0,0,0,0,0,0,0,0,0,0,0,0,0,0,0],"sum_hessian":[2.07645E5,2.00349E5,7.296E3,7.5007E4,1.25342E5,2.024E3,5.272E3,6.6032E4,8.975E3,5.223E4,7.3112E4,1.81E3,2.14E2,4.976E3,2.96E2,5.5468E4,1.0564E4,4.609E3,4.366E3,4.9659E4,2.571E3,6.9634E4,3.478E3,4.7E1,1.763E3,1.48E2,6.6E1,4.095E3,8.81E2,1.6E1,2.8E2,5.1719E4,3.749E3,4.124E3,6.44E3,2.202E3,2.407E3,2.501E3,1.865E3,2.3856E4,2.5803E4,1.766E3,8.05E2,6.7749E4,1.885E3,5.9E1,3.419E3,1E1,3.7E1,7.76E2,9.87E2,4.4E1,1.04E2,8E0,5.8E1,3.382E3,7.13E2,7.46E2,1.35E2,6E0,1E1,2.06E2,7.4E1,4.85E4,3.219E3,2.14E3,1.609E3,7.35E2,3.389E3,3.23E2,6.117E3,1.779E3,4.23E2,2.185E3,2.22E2,5.25E2,1.976E3,1.57E3,2.95E2,5.633E3,1.8223E4,4.007E3,2.1796E4,1.66E3,1.06E2,7.82E2,2.3E1,5.3088E4,1.4661E4,7.9E1,1.806E3,1.5E1,4.4E1,1E2,3.319E3,8E0,2E0,1.9E1,1.8E1,4.98E2,2.78E2,7.57E2,2.3E2,1E1,3.4E1,8.5E1,1.9E1,2E0,6E0,3.7E1,2.1E1,1.775E3,1.607E3,5.23E2,1.9E2,9.6E1,6.5E2,1.7E1,1.18E2,1E0,5E0,3E0,7E0,1.73E2,3.3E1,5E0,6.9E1],"tree_param":{"num_deleted":"0","num_feature":"20","num_nodes":"127","size_leaf_vector":"1"}},{"base_weights":[9.363421E-6,-9.0267207E-4,1.851509E-2,-2.6717708E-3,7.968819E-3,1.2537531E-2,2.9585378E-2,-3.5855272E-3,2.2288337E-2,1.6115047E-2,5.3424677E-3,6.6882307E-3,3.0918857E-2,4.4756025E-2,1.7024616E-2,-4.747051E-3,1.3907068E-2,3.9749164E-2,1.6757524E-2,1.9946199E-2,-1.30469445E-2,-1.0374782E-3,9.990438E-3,1.3799433E-3,3.2649007E-2,4.6296563E-2,6.966331E-3,7.8812025E-2,3.3992417E-2,2.977398E-2,-2.1306751E-3,-5.7012457E-3,1.702147E-2,6.908001E-3,2.3094898E-2,4.5181584E-2,-7.6184454E-3,1.5583278E-2,7.07195E-2,6.193859E-2,1.830665E-2,2.3837551E-2,-2.1012759E-2,1.5410119E-3,-2.2670936E-2,2.501302E-2,6.6784085E-3,-4.8106923E-3,1.831169E-2,2.6232742E-2,1.1452835E-1,8.840907E-2,3.186928E-2,3.6062464E-2,-1.4267929E-2,6.269684E-2,1.8594761E-1,9.800124E-3,4.9533345E-2,3.4993235E-2,-3.4435425E-2,3.9287426E-2,-9.170366E-3,-3.8972532E-3,-5.317857E-4,-5.110416E-4,6.971086E-3,4.442502E-3,-1.6326366E-3,7.6702037E-3,-2.013691E-3,1.5522071E-2,3.2620227E-3,6.734337E-3,-2.8795812E-2,6.0330853E-3,5.3677434E-4,7.5265323E-3,4.119152E-2,1.4689728E-2,5.24876E-2,8.760324E-4,6.521744E-3,-4.5350753E-3,1.7312877E-2,-1.7203745E-2,-4.03167E-3,3.6077623E-4,3.6943603E-2,-3.306656E-2,-4.8248456E-3,8.889148E-3,-3.0662117E-3,1.04881525E-2,1.503754E-3,-2.8560008E-3,8.438708E-3,4.063915E-3,2.6812732E-2,1.5478021E-2,1.5106475E-3,4.9363405E-2,-2.5617196E-3,4.4728026E-2,1.5072347E-2,1.4348988E-2,-5.4270527E-3,-2.4840008E-2,1.317051E-2,-1.7583055E-2,1.1765066E-3,2.0576598E-2,-3.8749557E-2,7.487761E-2,-7.735494E-3,1.76481E-2,5.734809E-4,1.7386034E-2,1.3556969E-4,1.3114557E-2,3.3716118E-4,1.5427386E-3,-4.899621E-2,2.6116772E-2,-3.5232797E-4,3.399879E-4,-1.2871571E-2],"categories":[],"categories_nodes":[],"categories_segments":[],"categories_sizes":[],"default_left":[0,0,0,0,0,0,0,0,0,0,0,0,0,0,0,0,0,0,0,0,0,0,0,0,0,0,0,0,0,0,0,0,0,0,0,0,0,0,0,0,0,0,0,0,0,0,0,0,0,0,0,0,0,0,0,0,0,0,0,0,0,0,0,0,0,0,0,0,0,0,0,0,0,0,0,0,0,0,0,0,0,0,0,0,0,0,0,0,0,0,0,0,0,0,0,0,0,0,0,0,0,0,0,0,0,0,0,0,0,0,0,0,0,0,0,0,0,0,0,0,0,0,0,0,0,0,0],"id":7,"left_children":[1,3,5,7,9,11,13,15,17,19,21,23,25,27,29,31,33,35,37,39,41,43,45,47,49,51,53,55,57,59,61,63,65,67,69,71,73,75,77,79,81,83,85,87,89,91,93,95,97,99,101,103,105,107,109,111,113,115,117,119,121,123,125,-1,-1,-1,-1,-1,-1,-1,-1,-1,-1,-1,-1,-1,-1,-1,-1,-1,-1,-1,-1,-1,-1,-1,-1,-1,-1,-1,-1,-1,-1,-1,-1,-1,-1,-1,-1,-1,-1,-1,-1,-1,-1,-1,-1,-1,-1,-1,-1,-1,-1,-1,-1,-1,-1,-1,-1,-1,-1,-1,-1,-1,-1,-1,-1],"loss_changes":[3.5046406E0,3.1058774E0,6.450174E-1,3.7631512E0,7.038474E-1,6.80919E-1,6.507454E-1,3.2340312E0,5.620625E-1,8.9639854E-1,7.3785627E-1,6.6239446E-1,5.628617E-1,5.6476426E-1,4.572391E-1,3.1003761E0,6.3717973E-1,3.608508E-1,2.7941334E-1,4.8700237E-1,2.7433652E-1,5.8507293E-1,7.1605945E-1,4.1852266E-1,4.2568916E-1,5.628294E-1,3.7059763E-1,6.288769E-1,4.4240808E-1,3.7788594E-1,2.187467E-1,4.0949407E0,7.295377E-1,5.491079E-1,3.1596208E-1,2.8228164E-1,3.874024E-1,2.7060342E-1,2.82162E-1,3.814397E-1,3.6039376E-1,2.1990395E-1,2.1029353E-1,3.8554603E-1,6.4250827E-1,4.2329884E-1,5.555933E-1,4.5384857E-1,3.6079785E-1,4.072231E-1,3.645724E-1,5.4144764E-1,5.550491E-1,2.3937806E-1,2.8010917E-1,3.7511432E-1,6.532645E-1,1.7856583E-1,2.9628897E-1,3.0717397E-1,4.3442535E-1,2.1077755E-1,2.2285546E-1,0E0,0E0,0E0,0E0,0E0,0E0,0E0,0E0,0E0,0E0,0E0,0E0,0E0,0E0,0E0,0E0,0E0,0E0,0E0,0E0,0E0,0E0,0E0,0E0,0E0,0E0,0E0,0E0,0E0,0E0,0E0,0E0,0E0,0E0,0E0,0E0,0E0,0E0,0E0,0E0,0E0,0E0,0E0,0E0,0E0,0E0,0E0,0E0,0E0,0E0,0E0,0E0,0E0,0E0,0E0,0E0,0E0,0E0,0E0,0E0,0E0,0E0,0E0,0E0],"parents":[2147483647,0,0,1,1,2,2,3,3,4,4,5,5,6,6,7,7,8,8,9,9,10,10,11,11,12,12,13,13,14,14,15,15,16,16,17,17,18,18,19,19,20,20,21,21,22,22,23,23,24,24,25,25,26,26,27,27,28,28,29,29,30,30,31,31,32,32,33,33,34,34,35,35,36,36,37,37,38,38,39,39,40,40,41,41,42,42,43,43,44,44,45,45,46,46,47,47,48,48,49,49,50,50,51,51,52,52,53,53,54,54,55,55,56,56,57,57,58,58,59,59,60,60,61,61,62,62],"right_children":[2,4,6,8,10,12,14,16,18,20,22,24,26,28,30,32,34,36,38,40,42,44,46,48,50,52,54,56,58,60,62,64,66,68,70,72,74,76,78,80,82,84,86,88,90,92,94,96,98,100,102,104,106,108,110,112,114,116,118,120,122,124,126,-1,-1,-1,-1,-1,-1,-1,-1,-1,-1,-1,-1,-1,-1,-1,-1,-1,-1,-1,-1,-1,-1,-1,-1,-1,-1,-1,-1,-1,-1,-1,-1,-1,-1,-1,-1,-1,-1,-1,-1,-1,-1,-1,-1,-1,-1,-1,-1,-1,-1,-1,-1,-1,-1,-1,-1,-1,-1,-1,-1,-1,-1,-1,-1],"split_conditions":[3.7939572E-1,1.7888118E-1,3.4825155E-1,3.2428494E-1,2.587666E-2,3.144613E-1,2.319456E-1,2.9765388E-1,1.4519468E-2,3.0756718E-2,1.3422394E-2,2.1386097E-1,1.1532785E-2,1.144402E-1,3.0558915E-3,1.8998165E-1,1.8103802E-1,8.723468E-1,6.6756827E-1,4.64846E-3,1.3777464E-2,5.001832E-1,1.0474595E-2,3.5638833E-1,2.13063E-2,2.2773934E-3,6.133242E-1,7.0803106E-1,5.060871E-1,1.8233967E-1,4.3307906E-3,1.8407728E-1,5.659271E-2,4.178258E-3,1.4008176E-1,8.0582374E-1,1.1895385E-1,6.663359E-1,4.1540653E-2,6.365139E-1,7.5320303E-3,4.784869E-2,1.8677283E-2,6.497706E-1,1.9992124E-3,5.9797513E-1,1.4551912E-2,8.9711785E-2,2.674684E-1,2.6790092E-2,5.9292782E-2,3.544782E-2,6.365139E-1,2.6572542E-3,6.625173E-2,1.205219E-1,2.0316303E-1,2.6702376E-3,9.681679E-2,3.2093084E-1,5.833233E-1,1.313099E-1,6.4042737E-3,-3.8972532E-3,-5.317857E-4,-5.110416E-4,6.971086E-3,4.442502E-3,-1.6326366E-3,7.6702037E-3,-2.013691E-3,1.5522071E-2,3.2620227E-3,6.734337E-3,-2.8795812E-2,6.0330853E-3,5.3677434E-4,7.5265323E-3,4.119152E-2,1.4689728E-2,5.24876E-2,8.760324E-4,6.521744E-3,-4.5350753E-3,1.7312877E-2,-1.7203745E-2,-4.03167E-3,3.6077623E-4,3.6943603E-2,-3.306656E-2,-4.8248456E-3,8.889148E-3,-3.0662117E-3,1.04881525E-2,1.503754E-3,-2.8560008E-3,8.438708E-3,4.063915E-3,2.6812732E-2,1.5478021E-2,1.5106475E-3,4.9363405E-2,-2.5617196E-3,4.4728026E-2,1.5072347E-2,1.4348988E-2,-5.4270527E-3,-2.4840008E-2,1.317051E-2,-1.7583055E-2,1.1765066E-3,2.0576598E-2,-3.8749557E-2,7.487761E-2,-7.735494E-3,1.76481E-2,5.734809E-4,1.7386034E-2,1.3556969E-4,1.3114557E-2,3.3716118E-4,1.5427386E-3,-4.899621E-2,2.6116772E-2,-3.5232797E-4,3.399879E-4,-1.2871571E-2],"split_indices":[10,14,6,1,7,4,17,5,5,9,12,0,3,4,16,18,0,15,6,1,8,14,10,17,16,19,10,6,10,8,3,4,9,16,1,1,7,1,9,4,12,0,8,3,18,14,0,2,15,14,13,0,4,16,17,2,17,18,0,13,6,4,19,0,0,0,0,0,0,0,0,0,0,0,0,0,0,0,0,0,0,0,0,0,0,0,0,0,0,0,0,0,0,0,0,0,0,0,0,0,0,0,0,0,0,0,0,0,0,0,0,0,0,0,0,0,0,0,0,0,0,0,0,0,0,0,0],"split_type":[0,0,0,0,0,0,0,0,0,0,0,0,0,0,0,0,0,0,0,0,0,0,0,0,0,0,0,0,0,0,0,0,0,0,0,0,0,0,0,0,0,0,0,0,0,0,0,0,0,0,0,0,0,0,0,0,0,0,0,0,0,0,0,0,0,0,0,0,0,0,0,0,0,0,0,0,0,0,0,0,0,0,0,0,0,0,0,0,0,0,0,0,0,0,0,0,0,0,0,0,0,0,0,0,0,0,0,0,0,0,0,0,0,0,0,0,0,0,0,0,0,0,0,0,0,0,0],"sum_hessian":[2.07645E5,1.97893E5,9.752E3,1.64992E5,3.2901E4,6.334E3,3.418E3,1.59166E5,5.826E3,8.02E3,2.4881E4,4.806E3,1.528E3,1.547E3,1.871E3,1.49256E5,9.91E3,1.4E3,4.426E3,7.089E3,9.31E2,1.0487E4,1.4394E4,3.991E3,8.15E2,9.3E2,5.98E2,3.7E2,1.177E3,1.123E3,7.48E2,1.42989E5,6.267E3,5.626E3,4.284E3,1.256E3,1.44E2,4.333E3,9.3E1,2.65E2,6.824E3,1.65E2,7.66E2,9.371E3,1.116E3,2.599E3,1.1795E4,2.923E3,1.068E3,7.57E2,5.8E1,2.36E2,6.94E2,2.52E2,3.46E2,3.23E2,4.7E1,4.61E2,7.16E2,1.039E3,8.4E1,1.08E2,6.4E2,5.0074E4,9.2915E4,1.562E3,4.705E3,3.431E3,2.195E3,3.956E3,3.28E2,1.054E3,2.02E2,1.08E2,3.6E1,3.262E3,1.071E3,5.6E1,3.7E1,2.39E2,2.6E1,1.245E3,5.579E3,7.7E1,8.8E1,1.31E2,6.35E2,9.346E3,2.5E1,7.7E1,1.039E3,2.298E3,3.01E2,6.55E2,1.114E4,2.558E3,3.65E2,1.002E3,6.6E1,3.44E2,4.13E2,4.1E1,1.7E1,9E1,1.46E2,5.26E2,1.68E2,1.5E1,2.37E2,1E2,2.46E2,3.14E2,9E0,3.6E1,1.1E1,6.3E1,3.98E2,6.11E2,1.05E2,8.26E2,2.13E2,6.5E1,1.9E1,4.9E1,5.9E1,4.91E2,1.49E2],"tree_param":{"num_deleted":"0","num_feature":"20","num_nodes":"127","size_leaf_vector":"1"}},{"base_weights":[8.2446295E-6,5.024953E-4,-2.4800679E-2,-5.4511535E-3,2.4991734E-3,-2.7824024E-2,1.7696368E-2,-7.7892914E-3,1.4574928E-2,2.035768E-3,4.848494E-2,-3.4052156E-2,-8.433939E-3,3.3530317E-2,-4.075756E-2,-9.945848E-3,1.2057283E-2,3.323218E-2,-1.4759591E-2,6.9597596E-4,1.4765049E-2,6.596209E-2,2.5828497E-2,-3.9707325E-2,-4.3098987E-3,2.198493E-2,-1.8517498E-2,7.426545E-2,7.289065E-4,-2.7762821E-3,-9.843445E-2,-1.1686825E-2,1.634916E-2,9.548251E-3,4.124117E-2,6.1221674E-2,1.965451E-2,1.7415004E-2,-2.8728718E-2,-1.1070144E-3,1.1001162E-2,1.6714063E-2,-9.781046E-3,4.6045374E-2,9.501806E-2,2.1987278E-2,8.852891E-2,-3.8753822E-2,-1.5755829E-1,5.1312305E-2,-1.8583607E-2,2.3699556E-3,9.6309E-2,-2.1235839E-2,8.460006E-2,1.1429152E-1,-1.2055831E-2,-8.22951E-3,2.066267E-1,5.3612195E-2,-4.1096777E-2,-1.1189242E-1,-6.5359995E-3,-4.366199E-3,1.5336457E-3,9.1407625E-3,-1.6961226E-4,4.309506E-3,-2.7070036E-3,1.4852372E-2,-3.2266572E-2,3.5903834E-2,1.5164635E-2,9.475747E-3,-1.2437638E-4,1.1845505E-2,-6.3417903E-3,-5.4861507E-3,-1.9618824E-2,2.5871643E-3,-1.2250113E-3,7.6497253E-3,2.618066E-3,5.473482E-3,-3.0285746E-3,-2.3197236E-4,-8.239943E-3,1.522591E-2,-1.4250484E-2,3.581396E-2,1.5664065E-2,7.3684338E-3,-3.731967E-2,4.85141E-2,-1.9395154E-2,-4.366802E-3,-1.2791022E-2,-6.3164875E-2,2.8138908E-2,2.4844806E-3,4.1548394E-2,-6.5578087E-3,6.668933E-2,-1.5590444E-2,6.6225356E-3,4.6567693E-2,-1.7358536E-2,2.5370438E-3,-9.935435E-3,-1.6209426E-3,9.5906705E-2,5.4021794E-2,6.2805885E-3,7.1473247E-3,-2.383755E-2,-5.624079E-3,4.0435303E-2,2.535065E-2,7.79627E-2,-4.6491637E-3,2.6914988E-2,-3.0570805E-2,8.691903E-3,-1.7122455E-2,-3.7907988E-2,6.6320794E-3,-7.035786E-3],"categories":[],"categories_nodes":[],"categories_segments":[],"categories_sizes":[],"default_left":[0,0,0,0,0,0,0,0,0,0,0,0,0,0,0,0,0,0,0,0,0,0,0,0,0,0,0,0,0,0,0,0,0,0,0,0,0,0,0,0,0,0,0,0,0,0,0,0,0,0,0,0,0,0,0,0,0,0,0,0,0,0,0,0,0,0,0,0,0,0,0,0,0,0,0,0,0,0,0,0,0,0,0,0,0,0,0,0,0,0,0,0,0,0,0,0,0,0,0,0,0,0,0,0,0,0,0,0,0,0,0,0,0,0,0,0,0,0,0,0,0,0,0,0,0,0,0],"id":8,"left_children":[1,3,5,7,9,11,13,15,17,19,21,23,25,27,29,31,33,35,37,39,41,43,45,47,49,51,53,55,57,59,61,63,65,67,69,71,73,75,77,79,81,83,85,87,89,91,93,95,97,99,101,103,105,107,109,111,113,115,117,119,121,123,125,-1,-1,-1,-1,-1,-1,-1,-1,-1,-1,-1,-1,-1,-1,-1,-1,-1,-1,-1,-1,-1,-1,-1,-1,-1,-1,-1,-1,-1,-1,-1,-1,-1,-1,-1,-1,-1,-1,-1,-1,-1,-1,-1,-1,-1,-1,-1,-1,-1,-1,-1,-1,-1,-1,-1,-1,-1,-1,-1,-1,-1,-1,-1,-1],"loss_changes":[2.546132E0,2.4202056E0,5.216198E-1,2.3942585E0,3.248852E0,4.5704627E-1,2.512669E-1,1.9597726E0,2.926364E0,2.5742266E0,6.005666E-1,4.8188305E-1,2.8321257E-1,2.8455004E-1,1.2678394E-1,1.8908186E0,3.282324E-1,1.2407417E0,9.3490887E-1,2.5374663E0,6.8782544E-1,4.921491E-1,1.5797526E-1,2.6448393E-1,3.653698E-1,3.3508065E-1,1.9605048E-1,3.296125E-1,2.211981E-1,7.9993315E-2,2.7714297E-2,1.8657665E0,6.1262655E-1,3.699369E-1,4.419964E-1,6.5966606E-1,5.2728343E-1,5.3689784E-1,5.53957E-1,3.3664465E0,6.703017E-1,5.467372E-1,1.6852549E-1,2.2744858E-1,3.566599E-1,2.3932311E-1,4.3644994E-1,2.2393918E-1,2.7282116E-1,3.5149574E-1,2.9365823E-1,1.9709285E-1,4.4497633E-1,2.387838E-1,3.8258493E-1,3.9540017E-1,7.68642E-2,1.7550252E-1,1.0554969E-2,3.8817685E-2,9.668687E-2,8.649558E-3,2.4566315E-3,0E0,0E0,0E0,0E0,0E0,0E0,0E0,0E0,0E0,0E0,0E0,0E0,0E0,0E0,0E0,0E0,0E0,0E0,0E0,0E0,0E0,0E0,0E0,0E0,0E0,0E0,0E0,0E0,0E0,0E0,0E0,0E0,0E0,0E0,0E0,0E0,0E0,0E0,0E0,0E0,0E0,0E0,0E0,0E0,0E0,0E0,0E0,0E0,0E0,0E0,0E0,0E0,0E0,0E0,0E0,0E0,0E0,0E0,0E0,0E0,0E0,0E0,0E0,0E0],"parents":[2147483647,0,0,1,1,2,2,3,3,4,4,5,5,6,6,7,7,8,8,9,9,10,10,11,11,12,12,13,13,14,14,15,15,16,16,17,17,18,18,19,19,20,20,21,21,22,22,23,23,24,24,25,25,26,26,27,27,28,28,29,29,30,30,31,31,32,32,33,33,34,34,35,35,36,36,37,37,38,38,39,39,40,40,41,41,42,42,43,43,44,44,45,45,46,46,47,47,48,48,49,49,50,50,51,51,52,52,53,53,54,54,55,55,56,56,57,57,58,58,59,59,60,60,61,61,62,62],"right_children":[2,4,6,8,10,12,14,16,18,20,22,24,26,28,30,32,34,36,38,40,42,44,46,48,50,52,54,56,58,60,62,64,66,68,70,72,74,76,78,80,82,84,86,88,90,92,94,96,98,100,102,104,106,108,110,112,114,116,118,120,122,124,126,-1,-1,-1,-1,-1,-1,-1,-1,-1,-1,-1,-1,-1,-1,-1,-1,-1,-1,-1,-1,-1,-1,-1,-1,-1,-1,-1,-1,-1,-1,-1,-1,-1,-1,-1,-1,-1,-1,-1,-1,-1,-1,-1,-1,-1,-1,-1,-1,-1,-1,-1,-1,-1,-1,-1,-1,-1,-1,-1,-1,-1,-1,-1,-1],"split_conditions":[8.6225283E-1,3.0453858E-1,2.5700554E-1,3.0715084E-1,5.286926E-1,2.4052121E-1,1.0375269E-2,2.986352E-1,7.8717893E-1,4.7091523E-1,7.096862E-2,6.298977E-2,3.576263E-3,1.1592344E-1,3.5864547E-1,1.15371495E-1,3.8704783E-1,4.8537485E-2,2.677368E-2,8.1990786E-2,7.8872055E-2,4.6866015E-1,6.2484753E-1,5.378792E-1,3.3886589E-3,2.0620594E-2,9.066848E-2,1.4248188E-2,9.796773E-2,2.0379633E-2,2.2705129E-1,2.6815283E-1,2.9201508E-2,7.174876E-1,1.2400531E-1,7.6156296E-2,2.6550438E-2,3.431619E-2,7.876392E-1,4.5866013E-2,7.875334E-2,5.2754843E-1,6.365139E-1,4.779363E-1,5.369817E-3,5.951283E-1,2.5472006E-2,4.801454E-3,1.22491075E-2,1.7615022E-2,2.3676562E-1,2.0538296E-3,3.881676E-2,5.1805233E-3,2.2525894E-2,9.201731E-1,2.622726E-2,2.6361642E-2,4.9535413E-3,3.0261029E-2,1.7530143E-2,3.9054688E-2,1.5841078E-2,-4.366199E-3,1.5336457E-3,9.1407625E-3,-1.6961226E-4,4.309506E-3,-2.7070036E-3,1.4852372E-2,-3.2266572E-2,3.5903834E-2,1.5164635E-2,9.475747E-3,-1.2437638E-4,1.1845505E-2,-6.3417903E-3,-5.4861507E-3,-1.9618824E-2,2.5871643E-3,-1.2250113E-3,7.6497253E-3,2.618066E-3,5.473482E-3,-3.0285746E-3,-2.3197236E-4,-8.239943E-3,1.522591E-2,-1.4250484E-2,3.581396E-2,1.5664065E-2,7.3684338E-3,-3.731967E-2,4.85141E-2,-1.9395154E-2,-4.366802E-3,-1.2791022E-2,-6.3164875E-2,2.8138908E-2,2.4844806E-3,4.1548394E-2,-6.5578087E-3,6.668933E-2,-1.5590444E-2,6.6225356E-3,4.6567693E-2,-1.7358536E-2,2.5370438E-3,-9.935435E-3,-1.6209426E-3,9.5906705E-2,5.4021794E-2,6.2805885E-3,7.1473247E-3,-2.383755E-2,-5.624079E-3,4.0435303E-2,2.535065E-2,7.79627E-2,-4.6491637E-3,2.6914988E-2,-3.0570805E-2,8.691903E-3,-1.7122455E-2,-3.7907988E-2,6.6320794E-3,-7.035786E-3],"split_indices":[6,6,7,2,19,14,11,0,2,4,1,0,18,4,7,12,5,0,17,10,1,6,6,4,18,1,8,15,8,5,3,10,1,0,8,6,5,9,7,17,4,14,4,4,16,6,10,9,11,15,1,18,1,2,3,6,1,9,3,17,1,4,0,0,0,0,0,0,0,0,0,0,0,0,0,0,0,0,0,0,0,0,0,0,0,0,0,0,0,0,0,0,0,0,0,0,0,0,0,0,0,0,0,0,0,0,0,0,0,0,0,0,0,0,0,0,0,0,0,0,0,0,0,0,0,0,0],"split_type":[0,0,0,0,0,0,0,0,0,0,0,0,0,0,0,0,0,0,0,0,0,0,0,0,0,0,0,0,0,0,0,0,0,0,0,0,0,0,0,0,0,0,0,0,0,0,0,0,0,0,0,0,0,0,0,0,0,0,0,0,0,0,0,0,0,0,0,0,0,0,0,0,0,0,0,0,0,0,0,0,0,0,0,0,0,0,0,0,0,0,0,0,0,0,0,0,0,0,0,0,0,0,0,0,0,0,0,0,0,0,0,0,0,0,0,0,0,0,0,0,0,0,0,0,0,0,0],"sum_hessian":[2.07645E5,2.0359E5,4.055E3,5.113E4,1.5246E5,3.786E3,2.69E2,4.5785E4,5.345E3,1.5094E5,1.52E3,2.865E3,9.21E2,2.12E2,5.7E1,4.1298E4,4.487E3,3.267E3,2.078E3,1.36567E5,1.4373E4,8.57E2,6.63E2,2.407E3,4.58E2,2.29E2,6.92E2,9.4E1,1.18E2,3.5E1,2.2E1,3.8734E4,2.564E3,4.133E3,3.54E2,1.066E3,2.201E3,6.29E2,1.449E3,1.16232E5,2.0335E4,1.3316E4,1.057E3,5.1E2,3.47E2,6.26E2,3.7E1,2.389E3,1.8E1,9.3E1,3.65E2,1.82E2,4.7E1,6.75E2,1.7E1,6.4E1,3E1,1.14E2,4E0,1.4E1,2.1E1,1.9E1,3E0,3.3087E4,5.647E3,1.397E3,1.167E3,3.282E3,8.51E2,3.36E2,1.8E1,1.63E2,9.03E2,1.38E3,8.21E2,4E2,2.29E2,1.129E3,3.2E2,2.7224E4,8.9008E4,2.756E3,1.7579E4,1.2597E4,7.19E2,7.01E2,3.56E2,4.86E2,2.4E1,2.2E2,1.27E2,6.16E2,1E1,2.5E1,1.2E1,3.31E2,2.058E3,1.5E1,3E0,6.3E1,3E1,3.61E2,4E0,4.8E1,1.34E2,3.4E1,1.3E1,1.93E2,4.82E2,1.3E1,4E0,3.7E1,2.7E1,2E1,1E1,1.07E2,7E0,2E0,2E0,5E0,9E0,1.1E1,1E1,5E0,1.4E1,1E0,2E0],"tree_param":{"num_deleted":"0","num_feature":"20","num_nodes":"127","size_leaf_vector":"1"}},{"base_weights":[7.5749754E-6,-6.3587126E-4,1.5812445E-2,-1.8504879E-3,8.09073E-3,2.4802532E-2,8.690648E-3,-1.2801884E-2,-6.3502823E-4,1.6315848E-2,3.7008359E-3,1.6955683E-2,3.834872E-2,8.64852E-2,7.362754E-3,-1.581922E-2,1.2944478E-2,1.3989778E-3,-8.577517E-3,9.975642E-3,2.8093562E-2,4.9211583E-3,-3.148253E-2,1.5752954E-2,1.0350955E-1,5.823891E-2,2.349225E-2,3.0987471E-2,1.8605562E-1,5.271513E-3,4.6326898E-2,-1.8945193E-2,5.385624E-3,1.9036248E-2,-2.2153191E-2,7.543136E-3,-1.1157551E-3,-1.434252E-2,1.8987672E-3,4.2057674E-2,8.037581E-3,4.9037673E-2,2.1559246E-2,5.86407E-3,-3.5075933E-2,7.831322E-2,-3.6587656E-2,1.8050399E-2,-2.4724923E-2,-2.6571881E-2,1.2725314E-1,4.212965E-2,1.0343083E-1,-3.614692E-3,3.6679316E-2,-4.0186673E-2,7.590668E-2,2.746425E-1,5.2435126E-2,4.3891445E-2,3.8026823E-3,8.710358E-2,8.587526E-3,-7.0900754E-3,1.5475917E-4,3.7485845E-3,-1.0158441E-2,4.641526E-3,1.7886678E-2,-1.2054332E-2,2.325834E-2,2.1211263E-3,1.442389E-2,-5.502754E-4,6.6370443E-3,-5.7440335E-3,-4.183484E-4,1.6440295E-3,-6.5900474E-3,1.1127823E-2,7.635198E-2,1.8568762E-3,1.06455255E-2,9.800022E-2,1.42157655E-2,7.1991514E-3,-1.1486674E-2,3.236509E-3,1.0031641E-5,7.42775E-3,-1.6762044E-2,-2.1426138E-3,5.3986527E-2,-1.733955E-2,-2.3735035E-3,4.1711405E-3,1.3699245E-2,2.5471762E-2,-1.2311914E-2,4.9750272E-2,-3.6542218E-3,1.0910654E-2,7.527771E-2,4.536605E-2,2.144521E-2,2.8575636E-2,-5.930282E-3,1.49793895E-2,2.5734068E-3,2.1038963E-2,-2.4490254E-2,4.274251E-2,-1.3793699E-3,9.1077834E-2,1.4398149E-2,5.3866748E-2,-2.9667255E-3,-1.7612256E-2,1.6837126E-2,4.4033756E-3,-8.751455E-4,2.840415E-3,3.9066724E-2,-7.736423E-3,3.0855622E-2],"categories":[],"categories_nodes":[],"categories_segments":[],"categories_sizes":[],"default_left":[0,0,0,0,0,0,0,0,0,0,0,0,0,0,0,0,0,0,0,0,0,0,0,0,0,0,0,0,0,0,0,0,0,0,0,0,0,0,0,0,0,0,0,0,0,0,0,0,0,0,0,0,0,0,0,0,0,0,0,0,0,0,0,0,0,0,0,0,0,0,0,0,0,0,0,0,0,0,0,0,0,0,0,0,0,0,0,0,0,0,0,0,0,0,0,0,0,0,0,0,0,0,0,0,0,0,0,0,0,0,0,0,0,0,0,0,0,0,0,0,0,0,0,0,0],"id":9,"left_children":[1,3,5,7,9,11,13,15,17,19,21,23,25,27,29,31,33,35,37,39,41,43,45,47,49,51,53,55,57,59,61,63,65,67,69,71,73,75,77,79,81,83,85,87,89,91,93,95,97,-1,99,101,103,105,107,109,111,113,115,117,119,121,123,-1,-1,-1,-1,-1,-1,-1,-1,-1,-1,-1,-1,-1,-1,-1,-1,-1,-1,-1,-1,-1,-1,-1,-1,-1,-1,-1,-1,-1,-1,-1,-1,-1,-1,-1,-1,-1,-1,-1,-1,-1,-1,-1,-1,-1,-1,-1,-1,-1,-1,-1,-1,-1,-1,-1,-1,-1,-1,-1,-1,-1,-1],"loss_changes":[2.1116834E0,2.1148646E0,5.198643E-1,2.33137E0,8.801656E-1,3.8094854E-1,4.677385E-1,1.3594666E0,2.5468748E0,6.3317204E-1,6.8265045E-1,2.351988E-1,3.8750708E-1,4.1420543E-1,3.6309034E-1,1.0382695E0,3.9297122E-1,1.9392529E0,1.9412696E0,3.4262997E-1,4.0512943E-1,5.7963943E-1,3.0162317E-1,2.092216E-1,1.5265372E-1,4.0478313E-1,2.7001566E-1,1.6290474E-1,3.0519873E-1,2.3995486E-1,3.4857923E-1,1.2454529E0,5.621172E-1,2.2548395E-1,4.9191016E-1,6.9814205E-1,1.4871022E0,1.2896833E0,9.753397E-1,3.2176536E-1,2.636912E-1,3.0782366E-1,3.3124864E-1,4.3099153E-1,4.419091E-1,2.0974521E-1,3.0974597E-1,2.4268425E-1,2.1990551E-1,0E0,1.526463E-1,4.9125272E-1,2.1361744E-1,3.9793572E-1,1.8874979E-1,9.71719E-2,1.6678585E-1,9.041393E-2,9.6848E-2,1.9782332E-1,2.981352E-1,3.6365038E-1,3.8826E-1,0E0,0E0,0E0,0E0,0E0,0E0,0E0,0E0,0E0,0E0,0E0,0E0,0E0,0E0,0E0,0E0,0E0,0E0,0E0,0E0,0E0,0E0,0E0,0E0,0E0,0E0,0E0,0E0,0E0,0E0,0E0,0E0,0E0,0E0,0E0,0E0,0E0,0E0,0E0,0E0,0E0,0E0,0E0,0E0,0E0,0E0,0E0,0E0,0E0,0E0,0E0,0E0,0E0,0E0,0E0,0E0,0E0,0E0,0E0,0E0,0E0,0E0],"parents":[2147483647,0,0,1,1,2,2,3,3,4,4,5,5,6,6,7,7,8,8,9,9,10,10,11,11,12,12,13,13,14,14,15,15,16,16,17,17,18,18,19,19,20,20,21,21,22,22,23,23,24,24,25,25,26,26,27,27,28,28,29,29,30,30,31,31,32,32,33,33,34,34,35,35,36,36,37,37,38,38,39,39,40,40,41,41,42,42,43,43,44,44,45,45,46,46,47,47,48,48,50,50,51,51,52,52,53,53,54,54,55,55,56,56,57,57,58,58,59,59,60,60,61,61,62,62],"right_children":[2,4,6,8,10,12,14,16,18,20,22,24,26,28,30,32,34,36,38,40,42,44,46,48,50,52,54,56,58,60,62,64,66,68,70,72,74,76,78,80,82,84,86,88,90,92,94,96,98,-1,100,102,104,106,108,110,112,114,116,118,120,122,124,-1,-1,-1,-1,-1,-1,-1,-1,-1,-1,-1,-1,-1,-1,-1,-1,-1,-1,-1,-1,-1,-1,-1,-1,-1,-1,-1,-1,-1,-1,-1,-1,-1,-1,-1,-1,-1,-1,-1,-1,-1,-1,-1,-1,-1,-1,-1,-1,-1,-1,-1,-1,-1,-1,-1,-1,-1,-1,-1,-1,-1,-1],"split_conditions":[3.051473E-1,1.3685486E-1,6.0248625E-2,2.0695563E-1,3.9016277E-2,4.06018E-1,1.2288927E-2,1.985132E-1,6.57311E-1,3.0758053E-1,8.5423636E-1,4.9507177E-1,1.2996563E-1,2.4759234E-1,5.479644E-1,1.7505682E-1,8.0582374E-1,2.9201508E-2,1.7064998E-1,6.2276214E-2,1.1820303E-2,7.127455E-2,1.1820303E-2,7.174876E-1,2.604143E-2,5.3314563E-2,4.996537E-2,1.1039881E-1,1.1347064E-1,3.9994936E-3,1.6970389E-2,3.190242E-1,6.497706E-1,8.5542604E-2,2.6193336E-1,3.8933232E-1,3.8933232E-1,1.2768404E-1,5.2754843E-1,5.6691807E-2,3.544594E-1,8.328544E-4,2.5904107E-1,4.6103526E-2,1.664802E-2,1.6353785E-1,1.9153398E-1,3.689529E-1,6.907157E-2,-2.6571881E-2,7.9483205E-1,8.1486255E-1,3.0565858E-3,5.116449E-3,1.0945837E-2,1.0853878E-1,2.915284E-2,3.233139E-2,4.8890382E-2,3.9963434E-3,1.206289E-1,3.0248067E-3,9.782483E-2,-7.0900754E-3,1.5475917E-4,3.7485845E-3,-1.0158441E-2,4.641526E-3,1.7886678E-2,-1.2054332E-2,2.325834E-2,2.1211263E-3,1.442389E-2,-5.502754E-4,6.6370443E-3,-5.7440335E-3,-4.183484E-4,1.6440295E-3,-6.5900474E-3,1.1127823E-2,7.635198E-2,1.8568762E-3,1.06455255E-2,9.800022E-2,1.42157655E-2,7.1991514E-3,-1.1486674E-2,3.236509E-3,1.0031641E-5,7.42775E-3,-1.6762044E-2,-2.1426138E-3,5.3986527E-2,-1.733955E-2,-2.3735035E-3,4.1711405E-3,1.3699245E-2,2.5471762E-2,-1.2311914E-2,4.9750272E-2,-3.6542218E-3,1.0910654E-2,7.527771E-2,4.536605E-2,2.144521E-2,2.8575636E-2,-5.930282E-3,1.49793895E-2,2.5734068E-3,2.1038963E-2,-2.4490254E-2,4.274251E-2,-1.3793699E-3,9.1077834E-2,1.4398149E-2,5.3866748E-2,-2.9667255E-3,-1.7612256E-2,1.6837126E-2,4.4033756E-3,-8.751455E-4,2.840415E-3,3.9066724E-2,-7.736423E-3,3.0855622E-2],"split_indices":[15,7,2,6,17,6,14,1,6,7,2,13,4,10,4,3,1,1,14,4,5,12,5,0,1,7,0,2,6,11,5,10,3,16,8,9,9,17,14,19,1,18,12,0,10,1,6,0,1,0,15,6,19,9,12,4,9,16,4,12,0,18,10,0,0,0,0,0,0,0,0,0,0,0,0,0,0,0,0,0,0,0,0,0,0,0,0,0,0,0,0,0,0,0,0,0,0,0,0,0,0,0,0,0,0,0,0,0,0,0,0,0,0,0,0,0,0,0,0,0,0,0,0,0,0],"split_type":[0,0,0,0,0,0,0,0,0,0,0,0,0,0,0,0,0,0,0,0,0,0,0,0,0,0,0,0,0,0,0,0,0,0,0,0,0,0,0,0,0,0,0,0,0,0,0,0,0,0,0,0,0,0,0,0,0,0,0,0,0,0,0,0,0,0,0,0,0,0,0,0,0,0,0,0,0,0,0,0,0,0,0,0,0,0,0,0,0,0,0,0,0,0,0,0,0,0,0,0,0,0,0,0,0,0,0,0,0,0,0,0,0,0,0,0,0,0,0,0,0,0,0,0,0],"sum_hessian":[2.07645E5,1.99523E5,8.122E3,1.75146E5,2.4377E4,3.589E3,4.533E3,1.7496E4,1.5765E5,8.482E3,1.5895E4,2.274E3,1.315E3,7.5E1,4.458E3,1.5661E4,1.835E3,1.25509E5,3.2141E4,5.515E3,2.967E3,1.5363E4,5.32E2,2.244E3,3E1,5.61E2,7.54E2,4.9E1,2.6E1,4.232E3,2.26E2,1.3649E4,2.012E3,1.564E3,2.71E2,3.645E4,8.9059E4,2.0732E4,1.1409E4,3.13E2,5.202E3,7.04E2,2.263E3,1.501E4,3.53E2,2.3E1,5.09E2,2.124E3,1.2E2,3E0,2.7E1,4.15E2,1.46E2,2.47E2,5.07E2,1.9E1,3E1,1.5E1,1.1E1,1.54E2,4.078E3,1.08E2,1.18E2,1.0999E4,2.65E3,1.704E3,3.08E2,1.439E3,1.25E2,2.3E2,4.1E1,3.6031E4,4.19E2,8.6389E4,2.67E3,1.5121E4,5.611E3,9.921E3,1.488E3,3.07E2,6E0,4.875E3,3.27E2,3E0,7.01E2,2.175E3,8.8E1,8.137E3,6.873E3,9.1E1,2.62E2,1.3E1,1E1,2.92E2,2.17E2,1.848E3,2.76E2,1.5E1,1.05E2,2.1E1,6E0,4.05E2,1E1,5.7E1,8.9E1,3.4E1,2.13E2,3.44E2,1.63E2,5E0,1.4E1,1.6E1,1.4E1,1.3E1,2E0,3E0,8E0,1.6E1,1.38E2,1.557E3,2.521E3,3.9E1,6.9E1,8.7E1,3.1E1],"tree_param":{"num_deleted":"0","num_feature":"20","num_nodes":"125","size_leaf_vector":"1"}},{"base_weights":[9.018231E-6,-4.3310237E-4,2.2151154E-2,-8.7992457E-4,1.7961385E-2,-1.5815897E-2,2.519151E-2,-1.9704364E-3,7.345589E-3,8.333383E-3,3.282003E-2,8.1455745E-2,-2.5274297E-2,2.4741473E-2,2.1020825E-1,-5.677818E-3,1.3044431E-3,1.482792E-2,3.8810675E-3,4.2418574E-4,3.3730842E-2,3.7560523E-2,-3.3218986E-3,-6.937674E-2,1.3771595E-1,-1.665441E-2,-1.4790078E-1,-8.127298E-3,2.7037393E-2,2.691183E-1,2.6819955E-3,-8.023745E-3,3.6659057E-3,-3.288846E-3,6.6697514E-3,1.237564E-2,4.5605406E-2,9.272889E-4,1.4887457E-2,-1.9322626E-3,3.5717383E-2,4.0233564E-2,-5.9030112E-2,2.8389568E-2,5.5057056E-2,-3.5999335E-2,2.160156E-2,7.085781E-2,-1.6768903E-1,1.6061498E-1,-1.3675066E-2,1.5313949E-1,-2.1286437E-2,-1.6110073E-1,1.1474772E-2,-2.6589386E-2,8.483167E-2,2.577803E-2,8.286694E-2,9.590944E-2,2.853377E-2,1.3095984E-2,-1.1889086E-2,-3.8552543E-3,5.668733E-5,-2.9444028E-4,4.9542566E-3,-1.2736041E-3,7.619628E-3,2.7767357E-3,-8.065784E-4,7.9536205E-3,2.5582584E-3,1.7388161E-2,-3.758068E-3,-1.0437673E-4,1.1263987E-2,6.3343896E-3,-9.7416533E-4,-3.0735617E-3,2.5957187E-3,-7.2170184E-3,1.5671434E-2,8.698062E-3,2.2536539E-2,-2.2311496E-2,3.6194697E-2,5.6382758E-3,1.8067498E-2,1.9601688E-2,-1.1369236E-2,-3.932117E-3,-2.507294E-2,3.6134228E-2,3.3298107E-3,4.137454E-2,7.6009636E-4,-5.7596963E-2,-1.0572848E-2,3.7659222E-4,5.7720974E-2,1.4168678E-2,8.3583176E-2,1.0196825E-2,-8.919694E-3,-6.383006E-2,-2.7460353E-2,-1.9666012E-2,-1.8157148E-3,3.4816254E-2,-3.49926E-2,1.7081575E-2,7.125569E-3,7.231302E-3,4.473643E-2],"categories":[],"categories_nodes":[],"categories_segments":[],"categories_sizes":[],"default_left":[0,0,0,0,0,0,0,0,0,0,0,0,0,0,0,0,0,0,0,0,0,0,0,0,0,0,0,0,0,0,0,0,0,0,0,0,0,0,0,0,0,0,0,0,0,0,0,0,0,0,0,0,0,0,0,0,0,0,0,0,0,0,0,0,0,0,0,0,0,0,0,0,0,0,0,0,0,0,0,0,0,0,0,0,0,0,0,0,0,0,0,0,0,0,0,0,0,0,0,0,0,0,0,0,0,0,0,0,0,0,0,0,0,0,0],"id":10,"left_children":[1,3,5,7,9,11,13,15,17,19,21,23,25,27,29,31,33,35,37,39,41,43,45,47,49,51,53,55,57,59,61,63,65,67,69,71,73,75,77,79,81,83,85,87,89,91,93,95,97,99,-1,101,103,105,-1,107,109,111,113,-1,-1,-1,-1,-1,-1,-1,-1,-1,-1,-1,-1,-1,-1,-1,-1,-1,-1,-1,-1,-1,-1,-1,-1,-1,-1,-1,-1,-1,-1,-1,-1,-1,-1,-1,-1,-1,-1,-1,-1,-1,-1,-1,-1,-1,-1,-1,-1,-1,-1,-1,-1,-1,-1,-1,-1],"loss_changes":[2.0327587E0,1.6732696E0,4.6963513E-1,1.7828506E0,6.9041574E-1,2.7990904E-1,3.082068E-1,2.1306713E0,6.030599E-1,5.887459E-1,3.2531E-1,2.3867269E-1,2.8927612E-1,2.836628E-1,1.0930669E-1,1.8042402E0,2.296413E0,5.55158E-1,5.1703227E-1,1.8602954E-1,4.222014E-1,2.6768875E-1,1.807677E-1,1.2217631E-1,9.1269016E-2,2.0696068E-1,5.0391108E-2,4.2444494E-1,2.4472117E-1,3.1200945E-2,6.930758E-3,2.6082306E0,9.8637825E-1,1.3776639E0,1.0401596E0,3.7082648E-1,3.9072585E-1,5.855983E-1,3.8007045E-1,1.8460296E-1,1.3950834E-1,2.5310814E-1,1.3577439E-1,3.3580244E-1,5.5298746E-1,1.0346285E-1,1.2946348E-1,1.7977111E-2,9.326518E-3,9.094229E-2,0E0,7.9862535E-2,1.19124375E-1,4.1626155E-2,0E0,1.644452E-1,2.7144784E-1,2.15518E-1,2.9618853E-1,0E0,0E0,0E0,0E0,0E0,0E0,0E0,0E0,0E0,0E0,0E0,0E0,0E0,0E0,0E0,0E0,0E0,0E0,0E0,0E0,0E0,0E0,0E0,0E0,0E0,0E0,0E0,0E0,0E0,0E0,0E0,0E0,0E0,0E0,0E0,0E0,0E0,0E0,0E0,0E0,0E0,0E0,0E0,0E0,0E0,0E0,0E0,0E0,0E0,0E0,0E0,0E0,0E0,0E0,0E0,0E0],"parents":[2147483647,0,0,1,1,2,2,3,3,4,4,5,5,6,6,7,7,8,8,9,9,10,10,11,11,12,12,13,13,14,14,15,15,16,16,17,17,18,18,19,19,20,20,21,21,22,22,23,23,24,24,25,25,26,26,27,27,28,28,29,29,30,30,31,31,32,32,33,33,34,34,35,35,36,36,37,37,38,38,39,39,40,40,41,41,42,42,43,43,44,44,45,45,46,46,47,47,48,48,49,49,51,51,52,52,53,53,55,55,56,56,57,57,58,58],"right_children":[2,4,6,8,10,12,14,16,18,20,22,24,26,28,30,32,34,36,38,40,42,44,46,48,50,52,54,56,58,60,62,64,66,68,70,72,74,76,78,80,82,84,86,88,90,92,94,96,98,100,-1,102,104,106,-1,108,110,112,114,-1,-1,-1,-1,-1,-1,-1,-1,-1,-1,-1,-1,-1,-1,-1,-1,-1,-1,-1,-1,-1,-1,-1,-1,-1,-1,-1,-1,-1,-1,-1,-1,-1,-1,-1,-1,-1,-1,-1,-1,-1,-1,-1,-1,-1,-1,-1,-1,-1,-1,-1,-1,-1,-1,-1,-1],"split_conditions":[3.011081E-1,1.8918072E-1,1.1000236E-2,9.536923E-2,3.7037915E-1,9.948698E-3,8.167687E-1,2.2216637E-1,4.4063963E-2,3.347726E-1,5.1621053E-2,5.9453514E-3,2.8862813E-1,7.479052E-3,5.0435726E-2,8.607395E-2,4.3487868E-1,3.0715084E-1,3.549627E-1,2.49214E-1,2.7210534E-1,7.6463926E-1,6.118397E-2,2.537512E-2,9.474086E-3,4.0995553E-3,5.607823E-1,1.22723915E-2,6.219383E-1,1.8788125E-1,5.880324E-3,1.1905214E-1,1.400987E-1,3.8704783E-1,5.1083963E-2,1.1877601E-1,9.18731E-1,1.059991E-1,2.8358918E-1,2.649294E-1,7.114992E-2,6.882739E-2,1.7962109E-1,1.6656713E-1,3.0468017E-1,1.432082E-1,6.776959E-3,4.762737E-2,3.359909E-2,1.4034236E-2,-1.3675066E-2,7.522687E-2,1.5074293E-3,3.2569666E-3,1.1474772E-2,1.19666895E-2,2.4776075E-2,2.6743194E-2,1.669058E-2,9.590944E-2,2.853377E-2,1.3095984E-2,-1.1889086E-2,-3.8552543E-3,5.668733E-5,-2.9444028E-4,4.9542566E-3,-1.2736041E-3,7.619628E-3,2.7767357E-3,-8.065784E-4,7.9536205E-3,2.5582584E-3,1.7388161E-2,-3.758068E-3,-1.0437673E-4,1.1263987E-2,6.3343896E-3,-9.7416533E-4,-3.0735617E-3,2.5957187E-3,-7.2170184E-3,1.5671434E-2,8.698062E-3,2.2536539E-2,-2.2311496E-2,3.6194697E-2,5.6382758E-3,1.8067498E-2,1.9601688E-2,-1.1369236E-2,-3.932117E-3,-2.507294E-2,3.6134228E-2,3.3298107E-3,4.137454E-2,7.6009636E-4,-5.7596963E-2,-1.0572848E-2,3.7659222E-4,5.7720974E-2,1.4168678E-2,8.3583176E-2,1.0196825E-2,-8.919694E-3,-6.383006E-2,-2.7460353E-2,-1.9666012E-2,-1.8157148E-3,3.4816254E-2,-3.49926E-2,1.7081575E-2,7.125569E-3,7.231302E-3,4.473643E-2],"split_indices":[16,19,3,8,6,13,11,4,1,4,2,11,14,11,1,9,6,2,8,5,7,19,2,5,3,12,14,18,4,4,0,17,18,5,5,4,2,18,4,6,17,17,11,14,14,0,12,0,1,8,0,1,19,19,0,9,13,0,15,0,0,0,0,0,0,0,0,0,0,0,0,0,0,0,0,0,0,0,0,0,0,0,0,0,0,0,0,0,0,0,0,0,0,0,0,0,0,0,0,0,0,0,0,0,0,0,0,0,0,0,0,0,0,0,0],"split_type":[0,0,0,0,0,0,0,0,0,0,0,0,0,0,0,0,0,0,0,0,0,0,0,0,0,0,0,0,0,0,0,0,0,0,0,0,0,0,0,0,0,0,0,0,0,0,0,0,0,0,0,0,0,0,0,0,0,0,0,0,0,0,0,0,0,0,0,0,0,0,0,0,0,0,0,0,0,0,0,0,0,0,0,0,0,0,0,0,0,0,0,0,0,0,0,0,0,0,0,0,0,0,0,0,0,0,0,0,0,0,0,0,0,0,0],"sum_hessian":[2.07645E5,2.03581E5,4.064E3,1.98754E5,4.827E3,3.01E2,3.763E3,1.75489E5,2.3265E4,2.93E3,1.897E3,2.6E1,2.75E2,3.755E3,8E0,8.2309E4,9.318E4,7.362E3,1.5903E4,2.235E3,6.95E2,1.677E3,2.2E2,7E0,1.9E1,2.58E2,1.7E1,2.45E2,3.51E3,6E0,2E0,6.5791E4,1.6518E4,5.0202E4,4.2978E4,6.82E3,5.42E2,1.2539E4,3.364E3,2.096E3,1.39E2,6.5E2,4.5E1,1.102E3,5.75E2,9.5E1,1.25E2,3E0,4E0,1.7E1,2E0,6E0,2.52E2,1.6E1,1E0,2.05E2,4E1,3.434E3,7.6E1,4E0,2E0,1E0,1E0,4.1436E4,2.4355E4,1.2131E4,4.387E3,4.8583E4,1.619E3,3.3673E4,9.305E3,1.458E3,5.362E3,4.47E2,9.5E1,1.2118E4,4.21E2,2.504E3,8.6E2,1.174E3,9.22E2,3E1,1.09E2,4.93E2,1.57E2,4.2E1,3E0,8.48E2,2.54E2,5.18E2,5.7E1,6.5E1,3E1,1.1E1,1.14E2,1E0,2E0,3E0,1E0,3E0,1.4E1,4E0,2E0,3.3E1,2.19E2,8E0,8E0,7E1,1.35E2,3.5E1,5E0,2.08E2,3.226E3,4.1E1,3.5E1],"tree_param":{"num_deleted":"0","num_feature":"20","num_nodes":"115","size_leaf_vector":"1"}},{"base_weights":[8.060942E-6,-7.5951434E-4,8.173604E-3,-1.1329327E-3,2.2022184E-2,1.5479698E-2,2.8603186E-3,9.416892E-4,-5.736346E-3,1.3848901E-2,3.463408E-2,6.3419715E-2,1.4146278E-2,1.7550623E-2,2.6128636E-4,-4.1301385E-3,3.162696E-3,-7.525878E-3,7.543385E-3,2.1525668E-2,-1.7313018E-2,2.2434251E-2,5.1859874E-2,7.880789E-2,-7.749075E-3,1.5101433E-2,-3.383065E-2,2.6259284E-2,7.94738E-3,-9.872769E-4,2.2947492E-2,-8.909411E-3,7.474281E-3,4.3166955E-3,-1.2995375E-2,-9.248153E-3,4.438871E-3,5.2023055E-3,4.8201866E-2,1.8813963E-3,3.2033015E-2,-3.1764194E-2,3.192386E-2,2.9858869E-2,-3.7726242E-2,5.7938516E-2,-5.22437E-2,8.697805E-2,-9.444623E-2,-1.1891506E-1,3.2229815E-2,1.5469309E-2,-1.05094545E-1,-1.0049863E-1,-1.3705657E-2,2.3962067E-2,1.0786992E-1,2.238567E-2,-1.6833087E-2,5.616433E-3,-5.8006193E-3,4.0607322E-2,-1.0517264E-2,-3.9990214E-3,1.8676867E-3,-7.3527725E-4,4.5015533E-3,3.8613428E-4,2.5032496E-3,-1.1711898E-2,-2.3873483E-3,-3.2035576E-3,2.6072508E-3,2.9498E-3,-1.8962E-3,9.3533663E-4,1.0543542E-2,1.1433212E-2,4.26505E-2,3.420511E-3,-8.905476E-3,2.7709695E-2,8.196178E-3,9.392437E-3,-1.1545841E-2,-1.8974844E-3,3.8342826E-2,1.1833693E-2,-1.4572405E-3,4.298772E-2,-1.4834226E-2,2.3966646E-2,6.2078726E-3,1.4557889E-2,-3.3276882E-2,3.0960007E-2,5.659547E-3,6.681354E-3,-5.0679274E-2,-5.2134123E-2,-8.788092E-3,5.020416E-2,-1.325848E-3,4.990022E-3,-2.7051473E-3,2.6103528E-3,-4.1722715E-2,-1.5818052E-2,-4.4388223E-2,-1.1409652E-2,1.5973102E-2,-1.9960642E-2,7.7733677E-3,6.2915266E-2,1.6561333E-3,-6.096409E-3,1.1557016E-2,-1.8083863E-3,-1.9124703E-2,9.166031E-4,7.722518E-3,-2.3381533E-3,7.0155906E-3,4.8103114E-3,2.080129E-2,3.1373322E-2,-5.6830877E-3],"categories":[],"categories_nodes":[],"categories_segments":[],"categories_sizes":[],"default_left":[0,0,0,0,0,0,0,0,0,0,0,0,0,0,0,0,0,0,0,0,0,0,0,0,0,0,0,0,0,0,0,0,0,0,0,0,0,0,0,0,0,0,0,0,0,0,0,0,0,0,0,0,0,0,0,0,0,0,0,0,0,0,0,0,0,0,0,0,0,0,0,0,0,0,0,0,0,0,0,0,0,0,0,0,0,0,0,0,0,0,0,0,0,0,0,0,0,0,0,0,0,0,0,0,0,0,0,0,0,0,0,0,0,0,0,0,0,0,0,0,0,0,0,0,0,0,0],"id":11,"left_children":[1,3,5,7,9,11,13,15,17,19,21,23,25,27,29,31,33,35,37,39,41,43,45,47,49,51,53,55,57,59,61,63,65,67,69,71,73,75,77,79,81,83,85,87,89,91,93,95,97,99,101,103,105,107,109,111,113,115,117,119,121,123,125,-1,-1,-1,-1,-1,-1,-1,-1,-1,-1,-1,-1,-1,-1,-1,-1,-1,-1,-1,-1,-1,-1,-1,-1,-1,-1,-1,-1,-1,-1,-1,-1,-1,-1,-1,-1,-1,-1,-1,-1,-1,-1,-1,-1,-1,-1,-1,-1,-1,-1,-1,-1,-1,-1,-1,-1,-1,-1,-1,-1,-1,-1,-1,-1],"loss_changes":[1.3014627E0,1.6147159E0,6.925708E-1,1.7834841E0,3.1505013E-1,4.7930145E-1,3.9443895E-1,1.4501115E0,1.3787543E0,4.4508788E-1,2.5164902E-1,2.2292775E-1,3.3549464E-1,1.2967089E-1,2.4868926E-1,2.1744027E0,1.6694131E0,1.0535741E0,6.5557206E-1,3.0790216E-1,2.6285738E-1,3.1647453E-1,3.1816542E-1,2.4460554E-1,1.6827144E-1,3.185749E-1,1.9048467E-1,1.5002179E-1,2.6513964E-1,2.6455498E-1,2.7109683E-1,1.8580191E0,8.549033E-1,1.0195504E0,7.8268707E-1,1.1468892E0,3.7345767E-1,4.0659535E-1,3.5016835E-1,1.569099E-1,2.7382863E-1,1.2203589E-1,3.088791E-1,2.0953399E-1,1.7258203E-1,3.8341415E-1,1.7094964E-1,1.7484105E-1,7.3311545E-2,4.408042E-2,1.3939442E-1,2.0387244E-1,8.6282164E-2,6.702107E-2,1.8280445E-1,1.4160445E-1,2.2817141E-1,3.2332554E-1,1.3800836E-1,1.8078461E-1,2.8023237E-1,2.106848E-1,1.5618436E-1,0E0,0E0,0E0,0E0,0E0,0E0,0E0,0E0,0E0,0E0,0E0,0E0,0E0,0E0,0E0,0E0,0E0,0E0,0E0,0E0,0E0,0E0,0E0,0E0,0E0,0E0,0E0,0E0,0E0,0E0,0E0,0E0,0E0,0E0,0E0,0E0,0E0,0E0,0E0,0E0,0E0,0E0,0E0,0E0,0E0,0E0,0E0,0E0,0E0,0E0,0E0,0E0,0E0,0E0,0E0,0E0,0E0,0E0,0E0,0E0,0E0,0E0,0E0,0E0],"parents":[2147483647,0,0,1,1,2,2,3,3,4,4,5,5,6,6,7,7,8,8,9,9,10,10,11,11,12,12,13,13,14,14,15,15,16,16,17,17,18,18,19,19,20,20,21,21,22,22,23,23,24,24,25,25,26,26,27,27,28,28,29,29,30,30,31,31,32,32,33,33,34,34,35,35,36,36,37,37,38,38,39,39,40,40,41,41,42,42,43,43,44,44,45,45,46,46,47,47,48,48,49,49,50,50,51,51,52,52,53,53,54,54,55,55,56,56,57,57,58,58,59,59,60,60,61,61,62,62],"right_children":[2,4,6,8,10,12,14,16,18,20,22,24,26,28,30,32,34,36,38,40,42,44,46,48,50,52,54,56,58,60,62,64,66,68,70,72,74,76,78,80,82,84,86,88,90,92,94,96,98,100,102,104,106,108,110,112,114,116,118,120,122,124,126,-1,-1,-1,-1,-1,-1,-1,-1,-1,-1,-1,-1,-1,-1,-1,-1,-1,-1,-1,-1,-1,-1,-1,-1,-1,-1,-1,-1,-1,-1,-1,-1,-1,-1,-1,-1,-1,-1,-1,-1,-1,-1,-1,-1,-1,-1,-1,-1,-1,-1,-1,-1,-1,-1,-1,-1,-1,-1,-1,-1,-1,-1,-1,-1],"split_conditions":[2.3080912E-1,3.9096943E-1,6.814888E-2,6.356393E-2,2.9728225E-1,3.9054688E-2,2.58125E-2,1.6824447E-1,1.0819754E-1,8.0582374E-1,5.7222205E-1,6.743142E-1,4.1980797E-1,6.1700153E-3,7.003485E-2,1.065067E-1,8.174819E-1,2.49214E-1,6.156129E-1,1.22171E-2,6.692611E-2,2.9286884E-2,4.2139653E-2,1.947296E-2,5.8821477E-3,5.797013E-1,2.2862097E-2,5.9978846E-3,8.837948E-2,9.036205E-3,6.19646E-3,8.0251835E-2,3.2622582E-1,3.1230316E-1,9.990743E-2,5.6691807E-2,4.571974E-3,4.9260998E-1,1.4172615E-1,2.0056704E-2,1.3821794E-2,1.0626005E-2,1.9712825E-1,2.66995E-1,1.5461687E-2,3.5805125E-2,7.1913205E-2,1.2118587E-1,8.47637E-3,6.692119E-3,4.3220222E-2,8.299061E-1,3.7449205E-1,2.130015E-2,2.3520948E-1,1.166823E-3,9.990743E-2,4.898688E-3,3.5143077E-2,3.8897794E-1,2.1310493E-1,4.7557238E-1,9.9256724E-2,-3.9990214E-3,1.8676867E-3,-7.3527725E-4,4.5015533E-3,3.8613428E-4,2.5032496E-3,-1.1711898E-2,-2.3873483E-3,-3.2035576E-3,2.6072508E-3,2.9498E-3,-1.8962E-3,9.3533663E-4,1.0543542E-2,1.1433212E-2,4.26505E-2,3.420511E-3,-8.905476E-3,2.7709695E-2,8.196178E-3,9.392437E-3,-1.1545841E-2,-1.8974844E-3,3.8342826E-2,1.1833693E-2,-1.4572405E-3,4.298772E-2,-1.4834226E-2,2.3966646E-2,6.2078726E-3,1.4557889E-2,-3.3276882E-2,3.0960007E-2,5.659547E-3,6.681354E-3,-5.0679274E-2,-5.2134123E-2,-8.788092E-3,5.020416E-2,-1.325848E-3,4.990022E-3,-2.7051473E-3,2.6103528E-3,-4.1722715E-2,-1.5818052E-2,-4.4388223E-2,-1.1409652E-2,1.5973102E-2,-1.9960642E-2,7.7733677E-3,6.2915266E-2,1.6561333E-3,-6.096409E-3,1.1557016E-2,-1.8083863E-3,-1.9124703E-2,9.166031E-4,7.722518E-3,-2.3381533E-3,7.0155906E-3,4.8103114E-3,2.080129E-2,3.1373322E-2,-5.6830877E-3],"split_indices":[0,1,1,0,6,4,14,4,15,1,1,5,14,16,16,3,4,5,6,3,15,19,12,16,8,9,1,16,8,11,19,13,6,4,6,19,18,4,5,9,3,15,7,4,8,3,7,18,11,7,13,5,6,13,5,19,6,18,5,4,10,0,4,0,0,0,0,0,0,0,0,0,0,0,0,0,0,0,0,0,0,0,0,0,0,0,0,0,0,0,0,0,0,0,0,0,0,0,0,0,0,0,0,0,0,0,0,0,0,0,0,0,0,0,0,0,0,0,0,0,0,0,0,0,0,0,0],"split_type":[0,0,0,0,0,0,0,0,0,0,0,0,0,0,0,0,0,0,0,0,0,0,0,0,0,0,0,0,0,0,0,0,0,0,0,0,0,0,0,0,0,0,0,0,0,0,0,0,0,0,0,0,0,0,0,0,0,0,0,0,0,0,0,0,0,0,0,0,0,0,0,0,0,0,0,0,0,0,0,0,0,0,0,0,0,0,0,0,0,0,0,0,0,0,0,0,0,0,0,0,0,0,0,0,0,0,0,0,0,0,0,0,0,0,0,0,0,0,0,0,0,0,0,0,0,0,0],"sum_hessian":[2.07645E5,1.89804E5,1.7841E4,1.86744E5,3.06E3,7.511E3,1.033E4,1.2873E5,5.8014E4,1.858E3,1.202E3,2.02E2,7.309E3,1.552E3,8.778E3,3.9204E4,8.9526E4,5.1125E4,6.889E3,1.491E3,3.67E2,7.05E2,4.97E2,1.66E2,3.6E1,7.167E3,1.42E2,8.13E2,7.39E2,8.321E3,4.57E2,2.7768E4,1.1436E4,8.3559E4,5.967E3,4.4692E4,6.433E3,6.515E3,3.74E2,5.2E2,9.71E2,2.84E2,8.3E1,6.28E2,7.7E1,4.7E2,2.7E1,1.59E2,7E0,9E0,2.7E1,7.146E3,2.1E1,3.2E1,1.1E2,7.92E2,2.1E1,4.67E2,2.72E2,3.508E3,4.813E3,2.99E2,1.58E2,2.1491E4,6.277E3,4.934E3,6.502E3,4.7688E4,3.5871E4,9.66E2,5.001E3,4.1392E4,3.3E3,4.285E3,2.148E3,6.092E3,4.23E2,3.39E2,3.5E1,4E2,1.2E2,6.9E1,9.02E2,2.7E1,2.57E2,6E1,2.3E1,4.92E2,1.36E2,4E0,7.3E1,2.95E2,1.75E2,1E1,1.7E1,1.28E2,3.1E1,3E0,4E0,5E0,4E0,5E0,2.2E1,6.822E3,3.24E2,5E0,1.6E1,1.7E1,1.5E1,8.1E1,2.9E1,1.6E1,7.76E2,1E1,1.1E1,1.28E2,3.39E2,2.22E2,5E1,3.113E3,3.95E2,4.506E3,3.07E2,1.62E2,1.37E2,1E1,1.48E2],"tree_param":{"num_deleted":"0","num_feature":"20","num_nodes":"127","size_leaf_vector":"1"}},{"base_weights":[6.4171086E-6,8.488333E-3,-7.5146655E-4,6.9341627E-3,2.5298968E-2,-1.892233E-3,4.6403203E-3,4.1936445E-3,1.8555313E-2,4.2716548E-2,1.2678972E-2,-3.1836552E-3,3.4832738E-3,9.403498E-3,-2.4780812E-4,-3.3421605E-3,1.1590335E-2,2.251214E-2,-7.729057E-3,9.364202E-2,2.6167015E-2,3.0017063E-2,-1.961433E-2,-8.061575E-3,-1.307829E-3,1.2701338E-2,1.4932305E-3,4.4583147E-3,1.719184E-2,-1.8599007E-3,1.00550465E-2,-8.284661E-3,1.3296245E-2,9.7070495E-3,4.4240355E-2,1.7685529E-2,5.4891292E-2,1.0400368E-1,-1.341506E-2,1.3798636E-1,8.289104E-2,1.952565E-2,1.03476174E-1,3.205709E-2,-9.5040016E-2,-1.2570444E-1,-1.0537996E-2,-9.767777E-3,1.7598819E-2,-1.9429541E-3,1.3338919E-2,8.239147E-3,2.8607648E-2,1.1254902E-2,-4.447065E-4,5.255509E-4,1.9019883E-2,3.3161912E-2,1.3274249E-2,-5.065259E-3,6.7122406E-3,5.309272E-3,3.9881557E-2,-3.8164223E-3,4.4666124E-3,5.8129923E-3,-6.8955086E-3,2.117039E-5,4.648828E-3,2.678025E-2,5.3524976E-3,4.8478595E-3,3.9051745E-2,-2.9467383E-2,1.841341E-2,1.2357197E-2,9.877647E-2,-1.8640932E-2,-1.0411033E-3,3.0848162E-2,-1.1917143E-2,8.901025E-3,-8.382031E-3,1.5005257E-2,9.5340714E-2,3.257937E-3,1.3787652E-2,-3.759587E-2,2.1876784E-3,-2.022016E-2,-5.842784E-2,-2.4107724E-2,5.700331E-4,-3.638278E-3,1.2636512E-3,1.3219087E-2,3.3846241E-3,-3.8519837E-3,-1.6755486E-4,3.2440799E-3,1.5454588E-2,1.8083742E-3,1.0099076E-2,1.4231523E-2,4.965547E-3,4.715846E-3,-1.4138927E-3,5.46174E-4,-2.1894085E-3,-1.2299914E-3,2.400933E-3,3.7113144E-3,1.3090193E-2,9.662155E-3,9.954501E-2,5.233914E-3,-7.439117E-5,-4.290145E-3,-5.3805305E-4,1.8568333E-3,5.6824036E-2,-7.0601306E-4,5.456128E-3,5.0635338E-2,7.246142E-3],"categories":[],"categories_nodes":[],"categories_segments":[],"categories_sizes":[],"default_left":[0,0,0,0,0,0,0,0,0,0,0,0,0,0,0,0,0,0,0,0,0,0,0,0,0,0,0,0,0,0,0,0,0,0,0,0,0,0,0,0,0,0,0,0,0,0,0,0,0,0,0,0,0,0,0,0,0,0,0,0,0,0,0,0,0,0,0,0,0,0,0,0,0,0,0,0,0,0,0,0,0,0,0,0,0,0,0,0,0,0,0,0,0,0,0,0,0,0,0,0,0,0,0,0,0,0,0,0,0,0,0,0,0,0,0,0,0,0,0,0,0,0,0,0,0],"id":12,"left_children":[1,3,5,7,9,11,13,15,17,19,21,23,25,27,29,31,33,35,37,39,41,43,45,47,49,51,53,55,57,59,61,63,65,67,69,71,73,75,77,-1,79,81,83,85,87,89,91,93,95,97,99,101,103,105,107,109,111,113,115,117,119,121,123,-1,-1,-1,-1,-1,-1,-1,-1,-1,-1,-1,-1,-1,-1,-1,-1,-1,-1,-1,-1,-1,-1,-1,-1,-1,-1,-1,-1,-1,-1,-1,-1,-1,-1,-1,-1,-1,-1,-1,-1,-1,-1,-1,-1,-1,-1,-1,-1,-1,-1,-1,-1,-1,-1,-1,-1,-1,-1,-1,-1,-1,-1],"loss_changes":[1.3348181E0,4.4481242E-1,1.1724378E0,4.9649584E-1,3.1620425E-1,1.0921967E0,7.750244E-1,7.033663E-1,3.0958188E-1,5.0743926E-1,4.6922857E-1,1.1607198E0,5.590434E-1,6.4924395E-1,2.728905E-1,5.141632E-1,3.9113456E-1,4.0317333E-1,2.4916713E-1,5.4473007E-1,2.3313427E-1,1.4208731E-1,2.8080776E-1,1.5427375E0,8.5234106E-1,3.8382077E-1,4.7419116E-1,5.9058666E-1,4.091679E-1,3.9039665E-1,3.1445372E-1,4.957546E-1,3.16351E-1,3.359422E-1,4.108715E-1,3.844632E-1,3.3875883E-1,2.5526324E-1,1.800259E-1,0E0,3.585329E-1,2.0450898E-1,3.9657745E-1,1.5774387E-1,2.8801039E-2,7.9475194E-2,2.355005E-1,1.0899451E0,3.6677814E-1,1.3247882E0,3.665626E-1,2.3743635E-1,2.682339E-1,2.9606986E-1,3.2471314E-1,2.8091884E-1,3.583557E-1,3.568511E-1,2.9669863E-1,3.1243107E-1,3.6818612E-1,1.894063E-1,6.142658E-1,0E0,0E0,0E0,0E0,0E0,0E0,0E0,0E0,0E0,0E0,0E0,0E0,0E0,0E0,0E0,0E0,0E0,0E0,0E0,0E0,0E0,0E0,0E0,0E0,0E0,0E0,0E0,0E0,0E0,0E0,0E0,0E0,0E0,0E0,0E0,0E0,0E0,0E0,0E0,0E0,0E0,0E0,0E0,0E0,0E0,0E0,0E0,0E0,0E0,0E0,0E0,0E0,0E0,0E0,0E0,0E0,0E0,0E0,0E0,0E0,0E0,0E0],"parents":[2147483647,0,0,1,1,2,2,3,3,4,4,5,5,6,6,7,7,8,8,9,9,10,10,11,11,12,12,13,13,14,14,15,15,16,16,17,17,18,18,19,19,20,20,21,21,22,22,23,23,24,24,25,25,26,26,27,27,28,28,29,29,30,30,31,31,32,32,33,33,34,34,35,35,36,36,37,37,38,38,40,40,41,41,42,42,43,43,44,44,45,45,46,46,47,47,48,48,49,49,50,50,51,51,52,52,53,53,54,54,55,55,56,56,57,57,58,58,59,59,60,60,61,61,62,62],"right_children":[2,4,6,8,10,12,14,16,18,20,22,24,26,28,30,32,34,36,38,40,42,44,46,48,50,52,54,56,58,60,62,64,66,68,70,72,74,76,78,-1,80,82,84,86,88,90,92,94,96,98,100,102,104,106,108,110,112,114,116,118,120,122,124,-1,-1,-1,-1,-1,-1,-1,-1,-1,-1,-1,-1,-1,-1,-1,-1,-1,-1,-1,-1,-1,-1,-1,-1,-1,-1,-1,-1,-1,-1,-1,-1,-1,-1,-1,-1,-1,-1,-1,-1,-1,-1,-1,-1,-1,-1,-1,-1,-1,-1,-1,-1,-1,-1,-1,-1,-1,-1,-1,-1,-1,-1],"split_conditions":[1.1637599E-2,1.6417311E-1,8.1990786E-2,1.5107049E-1,1.3340912E-2,1.03813E-1,1.2971821E-2,1.2968701E-1,1.0159277E-1,1.374098E-1,2.453269E-1,1.6303721E-1,3.4250576E-2,4.4602826E-1,9.140044E-2,1.0911225E-1,1.087892E-1,6.097722E-1,3.4870286E-2,4.64846E-3,8.732788E-1,7.8448784E-1,1.3502126E-3,1.893117E-1,2.0531254E-1,3.5864547E-1,1.7195612E-2,3.9269832E-1,2.498863E-2,1.1605566E-1,6.1260265E-1,1.432082E-1,3.947458E-2,9.736877E-3,1.8033419E-2,5.694789E-1,5.0363336E-3,1.01478636E-1,2.5130842E-2,1.3798636E-1,3.3070746E-1,1.0730432E-1,7.474837E-3,4.89419E-3,3.664866E-2,3.0453858E-1,4.2696375E-2,1.9019032E-1,7.686596E-2,2.5013012E-1,3.5417297E-1,4.3198696E-1,1.7505497E-2,6.656971E-2,6.505843E-1,4.1654044E-1,1.9364302E-1,8.372965E-1,6.608569E-1,2.73511E-1,8.174819E-1,1.992201E-1,1.9629763E-3,-3.8164223E-3,4.4666124E-3,5.8129923E-3,-6.8955086E-3,2.117039E-5,4.648828E-3,2.678025E-2,5.3524976E-3,4.8478595E-3,3.9051745E-2,-2.9467383E-2,1.841341E-2,1.2357197E-2,9.877647E-2,-1.8640932E-2,-1.0411033E-3,3.0848162E-2,-1.1917143E-2,8.901025E-3,-8.382031E-3,1.5005257E-2,9.5340714E-2,3.257937E-3,1.3787652E-2,-3.759587E-2,2.1876784E-3,-2.022016E-2,-5.842784E-2,-2.4107724E-2,5.700331E-4,-3.638278E-3,1.2636512E-3,1.3219087E-2,3.3846241E-3,-3.8519837E-3,-1.6755486E-4,3.2440799E-3,1.5454588E-2,1.8083742E-3,1.0099076E-2,1.4231523E-2,4.965547E-3,4.715846E-3,-1.4138927E-3,5.46174E-4,-2.1894085E-3,-1.2299914E-3,2.400933E-3,3.7113144E-3,1.3090193E-2,9.662155E-3,9.954501E-2,5.233914E-3,-7.439117E-5,-4.290145E-3,-5.3805305E-4,1.8568333E-3,5.6824036E-2,-7.0601306E-4,5.456128E-3,5.0635338E-2,7.246142E-3],"split_indices":[10,12,10,9,9,7,9,14,14,6,4,4,14,6,7,7,17,6,4,1,4,3,19,15,11,7,10,4,0,0,6,0,5,2,1,4,18,17,7,0,7,7,19,16,1,6,11,5,4,6,12,2,5,0,6,10,17,4,6,6,4,10,16,0,0,0,0,0,0,0,0,0,0,0,0,0,0,0,0,0,0,0,0,0,0,0,0,0,0,0,0,0,0,0,0,0,0,0,0,0,0,0,0,0,0,0,0,0,0,0,0,0,0,0,0,0,0,0,0,0,0,0,0,0,0],"split_type":[0,0,0,0,0,0,0,0,0,0,0,0,0,0,0,0,0,0,0,0,0,0,0,0,0,0,0,0,0,0,0,0,0,0,0,0,0,0,0,0,0,0,0,0,0,0,0,0,0,0,0,0,0,0,0,0,0,0,0,0,0,0,0,0,0,0,0,0,0,0,0,0,0,0,0,0,0,0,0,0,0,0,0,0,0,0,0,0,0,0,0,0,0,0,0,0,0,0,0,0,0,0,0,0,0,0,0,0,0,0,0,0,0,0,0,0,0,0,0,0,0,0,0,0,0],"sum_hessian":[2.07645E5,1.7031E4,1.90614E5,1.5591E4,1.44E3,1.57328E5,3.3286E4,1.2617E4,2.974E3,6.04E2,8.36E2,1.26853E5,3.0475E4,1.6858E4,1.6428E4,6.25E3,6.367E3,2.585E3,3.89E2,1.47E2,4.57E2,5.44E2,2.92E2,3.5232E4,9.1621E4,5.41E3,2.5065E4,1.0312E4,6.546E3,1.4206E4,2.222E3,4.819E3,1.431E3,6.021E3,3.46E2,2.251E3,3.34E2,1.8E1,3.71E2,3E0,1.44E2,4.22E2,3.5E1,5.36E2,8E0,2.2E1,2.7E2,3.3036E4,2.196E3,8.7814E4,3.807E3,4.226E3,1.184E3,4.151E3,2.0914E4,8.12E3,2.192E3,1.288E3,5.258E3,1.034E4,3.866E3,1.918E3,3.04E2,4.045E3,7.74E2,1.226E3,2.05E2,2.26E3,3.761E3,1.27E2,2.19E2,2.222E3,2.9E1,1.3E1,3.21E2,1.5E1,3E0,6.2E1,3.09E2,1.24E2,2E1,3.48E2,7.4E1,2.9E1,6E0,2.13E2,3.23E2,6E0,2E0,1.3E1,9E0,4E1,2.3E2,2.8265E4,4.771E3,4.22E2,1.774E3,9.898E3,7.7916E4,3.572E3,2.35E2,3.889E3,3.37E2,4.61E2,7.23E2,3.244E3,9.07E2,1.5719E4,5.195E3,5.017E3,3.103E3,1.727E3,4.65E2,1.285E3,3E0,4.018E3,1.24E3,2.704E3,7.636E3,3.856E3,1E1,1.203E3,7.15E2,3.2E1,2.72E2],"tree_param":{"num_deleted":"0","num_feature":"20","num_nodes":"125","size_leaf_vector":"1"}},{"base_weights":[7.465925E-6,-3.2021746E-4,1.6418396E-2,-6.4563047E-4,1.3715712E-2,-2.0875148E-3,1.9711562E-2,4.84685E-3,-1.6121515E-3,1.5920917E-2,-1.8154422E-2,2.5701197E-2,-1.6455844E-2,-2.7593983E-2,2.0943183E-2,6.1647124E-3,-1.1138722E-2,-2.0541572E-3,1.2115617E-2,1.0718828E-2,3.0841062E-2,-1.2067535E-1,-1.1157796E-2,3.893069E-2,-5.1944293E-2,2.0542491E-2,-2.4764337E-2,1.7730422E-1,-4.2073444E-2,-1.1572159E-3,2.3799784E-2,7.2581437E-3,-1.1381434E-2,-9.921973E-3,-1.2947269E-1,-3.0732718E-3,3.8700511E-3,2.2958735E-2,-1.4026363E-2,1.6270593E-2,-8.162746E-3,2.8233347E-2,1.2111622E-1,-5.383358E-2,-3.5437062E-2,-4.7799025E-2,6.6429987E-3,5.057495E-2,-5.675212E-2,5.018086E-2,-6.8932496E-2,-5.4818997E-3,1.5762737E-1,-3.8213704E-2,7.275219E-3,6.221431E-2,4.0380256E-3,-5.5613615E-2,1.1287891E-1,-1.1242517E-1,4.9095857E-3,2.2091044E-2,8.31542E-2,1.3708273E-3,4.373723E-3,1.6923674E-3,-7.288094E-3,-2.6134574E-3,-2.584164E-2,4.0274844E-2,-5.272305E-2,-1.1069807E-3,3.7816039E-3,5.1269087E-4,4.766352E-3,1.6419897E-2,4.6613566E-3,-5.161819E-3,1.0771666E-2,4.0973383E-3,2.1689367E-2,5.887715E-2,-3.125882E-3,1.4167737E-2,4.98817E-3,1.3120765E-2,8.3772406E-2,1.413793E-2,-1.9727696E-2,-2.3039347E-2,1.4388205E-2,9.154131E-3,-1.2939224E-2,4.1094765E-2,9.87564E-3,-8.894445E-3,-3.9640322E-2,1.8294234E-2,1.0471791E-3,1.0555607E-2,-2.6570925E-2,-2.014168E-2,9.223118E-3,9.166246E-2,2.9247118E-2,-4.4893168E-2,-9.1327485E-3,-9.064454E-3,1.1722943E-2,-4.9083002E-2,-1.1674184E-2,4.225512E-3,5.503592E-2,-3.610871E-2,5.757205E-3,2.0603906E-2,-7.345545E-4,4.0705926E-3,9.458329E-3,4.2159785E-2,1.3873588E-2],"categories":[],"categories_nodes":[],"categories_segments":[],"categories_sizes":[],"default_left":[0,0,0,0,0,0,0,0,0,0,0,0,0,0,0,0,0,0,0,0,0,0,0,0,0,0,0,0,0,0,0,0,0,0,0,0,0,0,0,0,0,0,0,0,0,0,0,0,0,0,0,0,0,0,0,0,0,0,0,0,0,0,0,0,0,0,0,0,0,0,0,0,0,0,0,0,0,0,0,0,0,0,0,0,0,0,0,0,0,0,0,0,0,0,0,0,0,0,0,0,0,0,0,0,0,0,0,0,0,0,0,0,0,0,0,0,0,0,0,0,0],"id":13,"left_children":[1,3,5,7,9,11,13,15,17,19,21,23,25,27,29,31,33,35,37,39,41,43,45,47,49,51,53,55,57,59,61,63,65,67,69,71,73,75,77,79,81,83,85,-1,87,89,91,93,95,97,99,101,103,105,107,-1,-1,109,111,113,115,117,119,-1,-1,-1,-1,-1,-1,-1,-1,-1,-1,-1,-1,-1,-1,-1,-1,-1,-1,-1,-1,-1,-1,-1,-1,-1,-1,-1,-1,-1,-1,-1,-1,-1,-1,-1,-1,-1,-1,-1,-1,-1,-1,-1,-1,-1,-1,-1,-1,-1,-1,-1,-1,-1,-1,-1,-1,-1,-1],"loss_changes":[1.1166401E0,9.2986435E-1,2.4777448E-1,1.0562596E0,3.244912E-1,2.4597852E-1,2.0164192E-1,6.273109E-1,1.02667E0,3.345821E-1,2.131264E-1,